29508 10
</s> -0.45229 0.403 -0.046596 -0.099287 0.62542 -0.43157 -0.70078 0.13259 0.62237 0.44725 
love -0.35754 -0.20755 0.092201 -0.12988 0.89378 -0.082451 -0.96361 -0.091431 0.96472 0.38661 
new -1.225 -0.35447 -0.11924 0.14845 0.63318 -0.65851 -1.1089 0.5638 0.089364 0.26853 
day -0.052017 0.15179 0.1253 -0.44403 1.1396 0.058046 -1.044 0.49586 0.83924 0.19942 
get -0.18154 -0.040121 0.73827 0.22132 1.068 -0.13044 -0.68211 0.3332 0.56396 0.85001 
amp -0.33123 0.30546 -0.040427 -0.38911 0.92044 -0.067132 -0.55569 -0.24678 0.34419 0.97738 
happy -0.3853 -0.22975 0.28824 -0.81268 1.1971 -0.022346 -1.1521 -0.12065 1.0717 0.044881 
thank -0.10592 -0.56576 0.31178 -0.37707 1.0415 -0.21339 -0.91435 0.062826 0.8497 0.72756 
time -0.4111 0.10235 0.27884 -0.12705 0.85937 -0.44499 -1.194 0.18673 0.44688 0.13056 
night -0.63071 -0.035958 0.30228 -0.49917 0.85662 -0.68349 -0.99182 -0.22379 0.35819 0.34324 
beach -0.79754 1.7142 0.58143 -0.6725 0.39381 0.64523 -1.3743 0.58528 1.4293 0.35233 
one -0.044538 -0.23009 0.46294 -0.038967 1.0611 -0.33902 -1.1121 0.23168 0.64617 0.38176 
today -0.0078269 -0.17491 -0.042323 -0.066672 1.056 0.0085141 -0.69168 0.6495 0.72404 0.76757 
go -0.11614 0.1496 0.71918 0.1239 1.1178 -0.48886 -0.64223 0.41656 0.40541 0.65464 
park -0.18447 1.08 -0.65114 0.25713 1 -0.80463 -1.0267 0.28936 0.7917 -0.27175 
good -0.72396 0.2275 0.37404 0.095136 0.99023 -0.042912 -0.87794 0.24347 0.55542 0.23311 
york -1.4719 -0.15281 -0.4623 0.23803 0.65797 -1.0597 -1.6749 0.44779 -0.090972 -0.15491 
best -0.1759 -0.20958 0.37648 -0.37293 1.3859 -0.33348 -0.95448 -0.20047 0.82604 0.19751 
make -0.096803 -0.31547 0.4047 0.24641 1.0883 -0.069045 -0.96017 0.17919 0.58515 0.74215 
like -0.37818 -0.015375 0.66386 0.51491 0.96975 -0.1617 -0.88761 0.20252 0.65408 0.61706 
friend -0.35042 -0.21784 0.35379 -0.43068 1.178 -0.16581 -0.97903 -0.051099 0.9762 0.11359 
christmas -0.080786 -0.26115 -0.72855 -0.33339 0.76639 -0.43355 -1.2395 -0.5364 1.1909 0.53481 
come -0.31316 -0.23326 0.55699 -0.33594 0.84314 -0.1927 -0.89447 0.37696 0.39843 0.84216 
see -0.21761 -0.1043 0.60378 -0.21087 0.90998 -0.45896 -0.9164 0.38218 0.6706 0.40589 
city -0.9149 0.70986 -0.16126 -0.06884 0.49369 -0.89899 -1.1793 0.31089 0.59279 -0.14271 
birthday -0.59455 -0.29859 0.49221 -1.1491 1.4184 0.067527 -1.2058 -0.57641 0.75088 0.22836 
girl -0.4426 -0.10097 0.30176 -0.17595 1.0213 -0.33919 -0.70092 -0.17675 1.0399 0.37098 
last -0.3648 -0.11137 0.49505 -0.4379 0.79474 -0.63082 -0.95953 0.23462 0.54755 0.45398 
university -0.84122 0.21495 0.29703 -0.021425 1.4271 -1.2394 0.19354 0.35417 1.9578 0.14903 
u -0.34465 -0.086115 0.69424 -0.17779 0.91591 -0.42867 -0.7648 0.46407 0.49497 0.6348 
beautiful -0.33603 -0.16424 -0.47723 -0.18238 0.76144 0.17576 -1.2802 0.36073 1.2852 0.17241 
look -0.36992 -0.36232 0.2172 0.41717 0.76254 -0.035837 -0.92195 0.2473 0.8908 0.76744 
california -0.40783 1.1495 0.086746 -0.53329 -0.17478 0.37719 -1.9807 0.36964 0.99303 0.53701 
little -0.18523 -0.086202 0.25838 0.057295 1.2629 0.21014 -0.80778 -0.15063 1.2028 0.45005 
life -0.10731 -0.026171 0.42533 0.010746 0.7407 -0.27925 -1.0661 0.29383 0.86572 0.40579 
great -0.022061 0.010824 0.16456 -0.30631 1.1525 -0.36447 -0.88131 0.33446 0.80561 0.27311 
year -0.10256 -0.30575 0.35716 -0.75828 1.5267 -0.4362 -1.0865 0.56745 0.73096 -0.0038492 
family -0.1886 0.091824 -0.059704 -0.49022 0.92199 -0.13108 -1.0597 -0.38009 1.1914 0.20843 
back -0.48167 0.35851 0.64396 0.01608 0.83604 -0.25725 -0.93729 0.62698 0.52642 0.27888 
take -0.13402 -0.020147 0.51453 0.28958 0.95901 -0.28044 -1.0323 0.46149 0.63292 0.44505 
center 0.3364 0.23838 -0.70825 -0.2433 0.73013 -2.0444 -0.73755 0.13194 0.43367 0.83193 
much -0.2116 -0.26912 0.47552 -0.1856 1.1141 -0.18028 -0.9046 -0.1385 1.0864 0.44142 
favorite -0.087037 -0.11423 0.049685 -0.28878 1.0711 -0.36143 -1.0507 -0.26809 0.72662 0.36901 
miss -0.48515 0.28621 0.6719 -0.36353 1.0362 -0.25681 -0.92308 -0.059695 0.99265 0.083432 
fun -0.2422 0.059421 0.1218 -0.12376 0.77262 -0.18552 -1.0079 0.10733 0.79021 0.37577 
school -0.32844 0.31422 -0.19337 -0.37983 1.7564 -0.99213 0.27534 0.63299 1.234 0.30081 
home -0.23008 0.42289 0.18517 -0.20036 0.82424 -0.20332 -0.94592 0.087924 0.98913 0.21488 
state -0.50564 0.80213 -0.11093 0.25929 1.2758 -1.207 -0.13648 1.0129 1.3893 -0.037845 
first -0.012513 -0.11921 0.15489 -0.31261 1.1145 -0.50646 -0.73289 0.25577 0.65153 0.50048 
la -1.1277 0.86038 0.49131 -0.21981 -0.30951 -0.31303 -1.7997 -0.22896 0.35654 0.66708 
tonight -0.48957 -0.17561 0.44285 -0.52517 0.89629 -0.65204 -0.7369 0.33372 -0.023901 0.84809 
light -0.5714 0.13446 0.15079 0.010375 0.28187 -0.74657 -0.88826 0.21147 0.54577 0.60904 
always -0.20621 -0.027858 0.59743 0.13953 1.0191 -0.23157 -0.95116 0.080607 0.79508 0.39639 
nyc -1.2723 -0.27682 -0.6939 0.23125 0.88617 -1.0095 -2.0548 0.58243 -0.5644 -0.15893 
know -0.31271 -0.26467 0.92332 0.38837 1.157 -0.3751 -0.88555 0.11454 0.63509 0.63831 
work -0.44503 -0.23516 0.33422 0.27053 0.74362 -0.083951 -0.90539 0.66553 0.46295 0.78907 
morning -0.68065 0.27654 -0.10293 0.22207 0.84465 0.30144 -1.1639 0.81278 0.73239 0.098548 
high -0.48003 0.61393 -0.079225 -0.17403 1.722 -0.82529 0.29781 0.71083 1.2051 0.20277 
weekend -0.4003 0.065149 0.091389 -0.48444 0.92898 -0.033516 -1.1266 0.373 0.98371 0.005776 
amaze -0.071464 -0.62573 0.039822 -0.27914 0.79062 -0.36351 -1.3639 0.12398 0.78027 0.46239 
lake 0.072844 1.4458 -0.33767 0.23252 1.1016 -0.20447 -0.8444 0.23788 1.2571 0.02161 
florida 0.0069622 1.436 0.88372 -0.70159 0.058941 0.17614 -1.4785 0.08225 1.4806 0.65807 
world 0.89024 0.32734 0.27358 -0.17052 0.8752 -1.0672 -2.0026 -0.18603 0.18694 0.48105 
baby -0.2974 0.14146 0.40857 -0.26476 1.0827 0.010557 -0.5952 -0.41619 1.118 0.59811 
texas -0.030507 1.1223 -0.063918 -0.9436 0.74837 -0.19384 -0.18397 0.020942 0.9167 1.1688 
disney 1.0223 0.7511 0.57787 -0.41494 0.65793 -0.43157 -3.3451 -0.83684 0.61922 0.80601 
guy -0.26918 -0.11727 0.5217 -0.1068 1.0586 -0.39356 -0.97262 -0.10916 0.63789 0.34571 
house -0.82135 0.1887 -0.11629 -0.29052 0.95089 -0.49865 -0.36524 -0.40863 0.35922 0.86148 
place 0.025754 0.38927 -0.10303 -0.1002 0.97805 -0.12052 -1.6054 -0.1303 0.51789 0.015817 
show -0.29672 -0.31262 0.47188 -0.38791 0.47184 -0.80419 -0.94585 0.16689 0.28742 1.0486 
san -0.40567 1.2175 -0.71005 -1.2757 0.4411 0.29491 -1.6377 0.6365 0.56083 0.57927 
miami -0.9042 1.1141 0.50717 -0.67904 -0.43376 0.037568 -1.4231 0.52688 0.72844 0.99895 
w -0.89577 0.33338 0.15461 -0.5282 0.92768 -0.54504 -0.5156 -0.018782 0.29418 0.44125 
say -0.23933 -0.14107 0.8735 0.36069 1.08 -0.29625 -0.80278 0.10966 0.573 0.73033 
people -0.14493 -0.30257 0.59467 0.030635 1.1535 -0.39904 -1.0386 0.20625 0.85163 0.28486 
south -0.96064 1.3211 0.51269 -0.3095 0.56507 -0.12553 -0.55515 0.46691 1.3213 0.28117 
2 -0.17436 0.08502 0.61415 -0.71095 1.2541 -0.28244 -0.78524 0.6711 0.10239 0.62929 
chicago -1.6009 0.27061 -0.6281 -0.15492 0.75556 -0.49318 -0.76232 0.90007 0.544 -0.067274 
week -0.1928 -0.19163 0.32779 -0.44548 0.94281 0.012563 -1.0652 0.81999 0.65475 0.47962 
two -0.036222 -0.045667 0.12233 -0.29905 1.3393 -0.11971 -0.86069 -0.059232 0.90932 0.26854 
feel -0.32028 -0.11291 0.4569 0.46887 0.78592 -0.1942 -1.0287 0.52725 0.74208 0.48885 
boy -0.33972 0.36248 0.547 -0.10607 1.0331 -0.36353 -0.54261 -0.24031 0.76898 0.53868 
let -0.11643 0.018086 0.73477 0.30273 0.90497 -0.60638 -0.82362 0.59372 0.46698 0.71107 
big -0.16435 0.29646 0.54024 0.03202 1.1373 -0.065186 -0.61515 0.079098 0.79982 0.60744 
think -0.26394 -0.16831 0.76358 0.67834 1.019 -0.23947 -0.87116 0.3182 0.71116 0.6876 
wait -0.24344 -0.17241 0.58436 -0.40523 0.96233 -0.23695 -0.99031 0.38925 0.6802 0.45052 
live -0.36424 0.096649 0.55846 -0.20515 0.45902 -0.60344 -1.078 0.42477 0.23992 0.6607 
bar -1.1315 0.60958 -0.062421 -0.52984 1.175 0.078463 -0.61599 -0.54298 -0.21091 0.89476 
art -0.36732 -0.20098 -0.9177 -0.063642 -0.29956 -1.1542 -1.2314 0.47686 0.51755 1.5113 
way -0.3277 0.12231 0.47036 0.11752 0.91392 -0.13301 -0.97025 0.51431 0.47484 0.446 
need -0.26405 -0.067923 0.49901 0.6794 0.77793 0.023072 -0.91461 0.30447 0.71653 0.87736 
photo -0.53505 -0.52846 -0.15958 0.10407 0.42202 -0.2985 -1.2814 0.71987 0.76384 0.49881 
never -0.14977 -0.092568 0.81167 0.54829 1.1508 -0.52584 -1.3097 0.55814 0.61135 0.11213 
lol -0.6541 0.1578 0.95361 0.57507 0.78858 -0.31684 -0.80362 0.01956 0.33055 0.81471 
still -0.23403 0.013781 0.7544 0.22172 1.2426 -0.25563 -0.78902 0.43222 0.5024 0.50658 
los -0.85705 0.6192 0.33435 -0.5271 -0.63083 -0.27346 -1.734 0.19673 0.73672 1.1942 
heart 0.11123 -0.24098 0.18716 0.013479 0.97613 -0.33252 -1.0103 0.12973 0.73021 0.53368 
right -0.38786 0.021644 0.53819 0.31091 0.98291 -0.33433 -0.75874 0.51037 0.43164 0.64732 
north -0.71137 1.1059 0.19855 -0.014918 0.75798 -0.3886 -0.04283 0.38623 1.6766 0.54323 
thing -0.086442 -0.31327 0.48896 0.48398 1.125 -0.18705 -1.1314 0.28816 0.77654 0.44017 
picture -0.098406 -0.24716 0.41992 0.2778 0.95919 -0.28348 -1.0466 0.24445 1.131 0.25308 
want -0.2336 -0.085473 0.94135 0.46797 1.0198 -0.076219 -0.87023 0.29163 0.74038 0.81343 
ever 0.071813 -0.29577 0.47688 -0.06351 1.3803 -0.33083 -1.0393 -0.28692 0.69294 0.38194 
meet -0.021839 -0.38401 0.27804 -0.3607 0.88366 -0.69871 -0.96563 -0.054288 0.78184 0.52729 
even -0.2045 0.022637 0.60562 0.39825 1.1785 -0.10998 -0.96098 0.36089 0.66805 0.35685 
date -0.57752 0.11039 -0.060257 -0.77267 1.4954 -0.10646 -0.7538 -0.86138 0.61113 0.46514 
shoot -0.64715 -0.38645 -0.0049982 0.027286 0.17334 -0.23976 -1.1638 0.95848 0.62557 0.90315 
view -0.65207 0.86585 -0.36663 0.28291 0.41937 -0.27195 -1.5475 0.87444 0.61165 -0.082119 
1 -0.091042 0.28403 0.5193 -0.79227 1.2974 -0.3991 -0.72603 0.8642 0.037504 0.58084 
club -0.48603 1.0618 0.022804 -0.65079 0.75434 -0.55974 -0.2336 0.15145 0.36194 0.87837 
game 0.17036 0.43379 0.60336 -0.018231 1.5855 -1.204 -0.099912 0.2649 0.2388 0.82692 
music -0.54577 -0.061653 0.52708 -0.41347 0.078792 -1.5605 -1.2457 0.16866 -0.26231 1.2042 
party -0.78269 -0.19893 0.23294 -0.8339 0.53098 -0.45442 -0.9133 0.060361 0.34178 0.75133 
downtown -1.1318 0.73956 -0.20965 -0.20464 -0.026937 -0.74494 -1.0786 -0.037134 0.95669 0.36502 
vega -1.4773 0.80192 0.85283 0.37226 -0.2689 -0.67137 -2.0145 -0.68585 0.43994 0.71329 
angeles -0.99928 0.7452 0.29431 -0.52065 -0.75136 -0.3042 -1.848 0.33533 0.88412 1.1919 
better -0.2479 0.066709 0.62524 0.12114 1.3288 -0.042956 -0.77339 0.21783 0.87394 0.30602 
summer -0.65786 0.67054 0.12054 -0.109 0.616 -0.075958 -1.1136 0.72344 0.8082 0.049131 
ny -1.5766 0.21985 -0.8933 -0.069572 0.88262 -1.1314 -1.3583 0.38835 -0.3842 -0.047186 
sunday -0.94506 0.1688 -0.18947 -0.41364 0.87748 0.36641 -0.97894 0.56478 0.61565 0.22545 
repost -0.92336 -0.65202 0.59769 -0.34213 0.37627 0.04768 -1.011 0.49309 0.44864 1.432 
man -0.20206 0.046099 0.68717 0.21195 1.1488 -0.47243 -0.76878 -0.18928 0.61984 0.52214 
friday -1.0996 -0.09172 0.28931 -0.59605 0.6449 0.10802 -0.8279 0.54385 0.2669 0.70036 
studio 0.19186 0.1104 0.53129 -0.30484 -0.12902 -0.45448 -1.9655 0.30811 -0.17831 1.5115 
another -0.24304 -0.2721 0.23466 -0.30121 0.78797 -0.072315 -1.0239 0.58243 0.85667 0.53562 
holiday -0.29251 -0.26915 -0.57648 -0.52584 0.52276 -0.061298 -1.4 0.047387 0.81197 0.51474 
lady -0.47549 -0.31975 0.099337 -0.43972 0.94556 -0.27203 -0.69764 0.078339 0.85167 0.56111 
tbt -0.44597 0.19996 0.4348 -0.25686 0.4574 -0.57399 -1.354 0.46814 0.65603 0.04394 
fall -0.20375 0.16149 -0.8019 0.77465 0.91356 -0.32467 -0.86885 0.68529 1.2266 0.17008 
find -0.062367 -0.13003 0.31437 0.43755 0.78455 -0.19964 -1.1009 0.076262 0.57575 0.66186 
ready -0.30496 0.010719 0.34356 -0.30291 0.75852 -0.30186 -0.64624 0.54767 0.47083 0.80009 
start -0.30037 -0.034126 0.42148 -0.25512 1.1811 0.10298 -0.90282 0.83063 0.26525 0.59576 
pretty -0.41093 0.010876 -0.054878 0.47796 0.73261 -0.087618 -0.91514 0.19959 1.0343 0.42505 
dinner -1.0088 0.18454 -0.18296 -0.89785 1.5455 0.40827 -1.0016 -0.87513 0.25097 0.52885 
old -0.16572 0.19887 0.058855 -0.061017 1.5635 -0.33412 -0.75186 0.12902 0.31379 0.18913 
island -0.25872 2.0315 0.4817 -0.37869 0.81267 -0.32191 -1.486 0.14098 0.81743 -0.22469 
bless -0.19416 -0.27929 0.2658 -0.4031 0.97338 -0.37286 -1.0075 0.22858 1.3099 0.1447 
rock -0.23864 0.54446 -0.14173 0.62013 0.84174 -0.64688 -0.90477 0.32919 0.31487 0.4039 
sister -0.35925 -0.093359 0.33018 -0.60639 1.049 -0.14195 -0.8594 -0.44528 1.4917 0.27541 
stadium 0.348 1.1759 0.49961 -0.26347 2.3685 -1.8847 0.092372 -0.010036 0.40067 0.48308 
oh -0.51629 0.020158 0.17822 0.51268 0.92835 -0.39588 -0.72094 -0.27012 0.62329 0.53807 
college -0.53399 -0.040645 0.027346 -0.35448 1.3657 -1.001 0.21084 0.61244 1.4972 0.41194 
washington -0.86137 0.66123 -0.87213 -0.12974 0.37366 -1.2682 -0.73381 1.1595 1.141 0.28233 
pic -0.58652 -0.14298 0.44201 0.22173 0.88839 -0.26446 -0.78283 0.2354 0.99691 0.33173 
thankful -0.10951 -0.21495 0.22666 -0.4725 1.444 -0.03688 -0.95705 -0.01388 1.6967 0.00025591 
square -1.2579 -0.098063 -0.67826 0.10055 0.98407 -1.5152 -1.6566 0.010627 0.035199 -0.31688 
mom -0.16759 -0.093473 0.33316 -0.28836 1.213 -0.10383 -0.87658 -0.40633 0.96252 0.47799 
hollywood -0.22056 0.90334 0.78331 -0.039353 -0.38362 -0.75194 -2.322 -0.32214 0.28835 0.87865 
sweet -0.27229 0.0011814 -0.023352 -0.22614 1.2685 0.4413 -0.84197 -0.51878 1.0219 0.62183 
usa -0.11671 1.0508 -0.68022 0.070017 0.29194 -1.0466 -1.6992 0.96592 0.23735 0.070684 
3 -0.080966 0.10929 0.51986 -0.71592 1.2581 -0.12564 -0.88015 0.89034 -0.0059224 0.63774 
next -0.22191 0.045769 0.71165 -0.53124 0.77907 -0.41493 -0.91646 0.76721 0.64067 0.48237 
west -0.96256 0.91939 0.063439 -0.2217 0.6994 -0.61381 -0.55111 0.39858 0.7497 0.10303 
hair -0.78812 -0.52681 -0.14421 0.43131 0.48822 0.60205 -0.47218 0.87609 1.4227 1.7534 
carolina -0.89629 1.3 0.55813 0.022187 0.94716 -0.17278 0.21294 0.25242 2.3293 0.73402 
hill -0.37777 1.223 -0.62328 -0.014297 0.3484 -0.59565 -0.45661 -0.060768 1.2655 0.80608 
finally 0.013546 0.011536 0.48097 -0.16979 0.89383 -0.28604 -0.93328 0.27079 0.70076 0.59616 
long -0.41865 0.43678 0.43979 -0.17867 1.0324 0.16774 -0.8875 0.44883 0.63089 0.28329 
street -1.2301 0.4103 -0.40974 -0.3216 0.72293 -0.82026 -1.2415 0.31808 -0.29356 0.06688 
spend -0.1077 -0.011526 0.45299 -0.46523 1.5 0.046825 -1.2866 0.23467 1.1745 -0.17457 
play -0.050901 0.075307 0.72505 0.068028 0.90122 -0.65977 -0.78672 0.20671 0.23285 0.89017 
merry -0.19525 -0.14632 -0.39359 -0.4971 0.80598 -0.59192 -1.0945 -0.7864 1.6177 0.34214 
perfect -0.23879 -0.17161 -0.28024 0.16792 0.98525 0.39316 -1.0845 0.28695 0.95021 0.49059 
everyone -0.29705 -0.6121 0.39953 -0.22749 1.0337 -0.067578 -1.1959 0.35767 0.89676 0.40586 
2016 -0.047821 0.095839 -0.20161 -0.89116 0.58555 -1.0087 -0.9203 0.96374 0.42792 0.50214 
spring 0.18099 0.95261 -0.31157 -0.035162 0.60564 0.25741 -1.0584 0.43239 1.1236 0.61668 
smile -0.4079 -0.14427 0.47838 0.54038 0.79548 -0.026335 -1.1496 0.179 1.143 0.25325 
tree 0.21999 0.011056 -1.0236 0.47937 0.80167 -0.39871 -1.3193 -0.26388 1.2398 0.49833 
magic 0.66704 0.18992 0.33864 0.015362 0.45335 -0.56317 -2.7541 -0.35425 0.49621 0.67758 
post -0.68551 -0.46994 0.63923 -0.0099747 0.97167 -0.03903 -0.92253 0.63651 0.64198 0.57606 
church 0.18035 -0.12852 -0.93348 -0.84468 1.3666 -0.82474 -0.36897 0.33203 1.5939 0.48071 
hotel -1.0673 1.0301 -0.27991 -0.12604 -0.22756 -0.8046 -1.4463 -0.45877 0.9995 0.42493 
really -0.28836 -0.12331 0.8701 0.63677 1.0046 -0.23543 -0.95692 0.17715 0.65321 0.68989 
food -1.0826 0.2002 0.051124 -0.19265 1.3936 0.55355 -1.2825 -0.5979 -0.25051 0.78557 
kid 0.015701 0.038031 0.43918 0.051321 1.1025 -0.34051 -0.69972 -0.060403 0.69491 0.67542 
blue -0.30277 0.78538 -0.51972 0.26146 0.62236 -0.20595 -0.60784 0.37763 0.38057 0.97396 
team 0.057565 -0.032981 0.22732 -0.2534 0.96036 -0.75888 -0.47141 0.71214 0.38005 0.86177 
shop -0.5386 0.0047795 -0.60606 -0.028022 0.58001 0.28432 -0.86107 0.2755 0.16914 1.4633 
brooklyn -1.7649 0.07909 -0.61701 0.44451 0.9479 -0.81119 -1.5033 0.82701 -0.44239 -0.095069 
give 0.18881 -0.44636 0.6837 0.17709 1.1445 0.0010572 -0.83711 0.26697 0.7473 1.0855 
enjoy -0.22406 0.20858 0.11915 -0.16105 0.94017 0.32301 -1.3187 0.23585 0.69208 0.28185 
run -0.16996 0.57437 0.30896 0.31936 1.1715 -0.18106 -0.70625 1.0218 0.28151 0.40274 
st -0.63472 0.3642 -0.79807 -1.3445 1.125 -0.86142 -0.50486 -0.092709 0.71876 0.399 
national 0.81135 0.98597 -0.84431 0.13249 0.89659 -1.3419 -0.98589 0.86512 1.2107 0.35301 
watch 0.17068 0.15422 0.71954 0.1249 0.99441 -0.61073 -0.86196 0.21889 0.34485 0.77506 
keep -0.3519 -0.052561 0.82685 0.50751 1.0738 -0.082012 -0.71881 0.64975 0.58855 0.75969 
saturday -0.98145 -0.17429 0.11725 -0.60612 0.80734 0.15306 -0.98132 0.64841 0.27727 0.50526 
n -1.5136 0.63819 0.65525 -0.18494 0.95774 -0.3485 -0.31672 0.1232 -0.12946 0.98819 
sunset -0.73262 1.0493 -0.42922 0.29454 0.28483 0.15649 -1.7802 0.99578 1.0816 -0.18241 
well 0.087274 0.091429 0.61516 0.29165 1.0472 -0.42384 -0.81702 0.1909 0.74082 0.62294 
walk -0.11494 0.62382 0.20206 0.23235 0.71622 -0.34036 -1.2972 0.57786 0.5172 0.10104 
wed -0.21714 -0.62257 -0.93739 -0.84359 0.93582 0.14751 -1.0267 0.15883 1.3953 0.63514 
red -0.22751 0.45831 -0.61216 0.64748 0.9502 -0.18109 -0.43525 0.015457 0.34339 1.3829 
real -0.59028 0.032144 1.0034 0.23679 0.62132 -0.5357 -0.64776 0.22611 0.58154 0.89715 
awesome 0.0082549 -0.38888 0.09638 -0.30861 0.87787 -0.31351 -1.0825 0.15763 0.57948 0.64719 
restaurant -1.1626 0.65111 -0.2522 -1.0055 1.2503 0.23112 -0.85656 -0.88025 0.070335 0.64806 
ohio -1.0215 0.0092119 -0.084475 0.54437 1.4336 -1.088 -0.07202 0.031616 1.5625 0.0083584 
stop -0.34619 0.12 0.55099 0.34876 1.0186 -0.10389 -0.88083 0.35898 0.27019 0.70749 
try -0.25064 -0.11671 0.66953 0.7437 1.3127 0.19219 -0.95344 0.31106 0.22813 0.91636 
hope -0.27279 -0.51104 0.49449 -0.49879 1.2191 -0.20408 -1.1291 0.21531 1.0263 0.22811 
dance -0.19 -0.38509 0.43726 -0.62025 0.63477 -0.87646 -0.98648 0.41781 0.35595 0.7426 
dream 0.091333 -0.10436 0.27635 0.30006 0.29705 -0.53464 -1.8189 0.24167 0.38926 0.58898 
atlanta -1.515 0.42365 0.429 0.17906 0.019939 -0.77211 -0.085502 0.16604 0.99702 1.3872 
beauty -0.40183 -0.35232 -0.59418 0.11969 0.38417 0.24619 -1.1142 0.47084 1.0647 0.89216 
hot -0.73132 0.46943 0.22373 0.3076 0.9061 0.31968 -0.64292 0.087219 0.17859 1.0083 
face -0.36753 -0.044051 0.5708 0.70304 0.79797 -0.01551 -0.82475 0.060206 0.92516 0.76251 
georgia -0.83849 0.68378 0.65992 0.39868 0.43097 -0.70446 0.17961 -0.12266 1.8271 1.1087 
adventure 0.35256 0.74421 0.042252 0.016387 0.64098 -0.20823 -2.0213 0.19009 0.88329 -0.068931 
airport -1.622 1.7329 0.054758 -1.0671 -0.19278 -1.3222 -0.81035 0.62746 1.3939 0.82991 
proud 0.41731 -0.30957 0.30775 -0.4478 1.4137 -0.93267 -0.30201 0.26638 1.0925 0.81304 
cute -0.50946 -0.2326 0.20404 0.62677 0.88871 0.15847 -0.8347 -0.41716 1.3005 0.76757 
every -0.1316 -0.35666 0.63262 0.011059 1.1427 -0.058538 -1.1193 0.73116 0.60316 0.48589 
selfie -0.93204 -0.089158 0.046111 0.58311 0.31051 -0.2767 -1.0765 0.36912 0.97518 0.36064 
ya -0.6568 0.22577 1.2223 -0.21472 0.95977 -0.57204 -0.62388 -0.18997 0.76894 0.52673 
check -0.5213 -0.28764 0.57489 -0.026155 0.30634 -0.19171 -0.95275 0.83864 0.19241 1.6417 
could -0.053523 -0.26955 0.89628 0.077643 1.4223 -0.068981 -1.145 0.10155 0.96429 0.32962 
garden -0.51839 0.16968 -1.2913 0.025979 0.84049 -0.75256 -1.1499 -0.79448 0.93297 0.33339 
lunch -0.98962 0.30003 -0.15415 -0.54141 1.6366 0.75279 -0.95524 -0.52196 0.25491 0.47861 
coffee -0.53993 0.23962 -0.72372 0.49244 1.0986 0.61789 -1.3767 -0.1835 -0.049056 0.91833 
season -0.15595 -0.24229 -0.4116 -0.13024 0.92597 -0.62864 -0.67813 0.048084 0.88752 0.60717 
town -0.93373 0.4704 -0.13285 -0.14755 0.98587 -0.57485 -0.61086 -0.06623 0.63382 0.094143 
celebrate -0.28152 -0.38813 0.11115 -1.2947 1.4141 -0.036657 -1.1741 -0.049827 0.61459 0.29841 
god 0.18705 -0.24378 0.35944 -0.009567 0.98486 -0.57 -0.88503 0.4719 1.0793 0.42054 
international -1.2986 1.4391 0.053925 -1.134 -0.2407 -1.2857 -0.82857 0.7124 1.1672 0.89854 
4 -0.19856 0.061433 0.46015 -0.68967 1.4646 -0.28506 -0.62953 1.0263 0.055702 0.55287 
yesterday -0.15429 -0.1206 0.079723 -0.11873 0.80446 -0.21923 -1.0753 0.40996 0.65682 0.44708 
hall -0.33816 0.15703 -0.21122 -0.54832 0.71897 -1.8594 -0.65647 -0.2371 0.56994 0.44954 
5 -0.19811 0.26886 0.60356 -0.71504 1.469 -0.16987 -0.92026 1.096 -0.23442 0.56731 
together -0.19057 -0.28992 0.39669 -0.11805 1.2552 -0.47985 -0.84542 0.36823 0.87928 0.2482 
fire -0.47318 0.65505 0.13017 0.42181 0.78379 -0.27704 -0.51732 0.44751 0.13106 0.85717 
call -0.23336 -0.23001 0.61644 0.045144 0.94862 -0.020427 -0.6589 0.32478 0.60328 0.94558 
end -0.17088 0.16065 0.41775 -0.11465 1.1163 -0.015525 -1.0402 0.68521 0.54486 0.18559 
ca -0.53831 1.6438 -0.43748 -0.88348 0.08958 0.28313 -1.4384 0.092228 0.43085 0.92108 
white -0.32822 0.43461 -0.52721 0.6684 0.91539 -0.42176 -0.37228 0.28932 0.43202 1.0739 
houston -0.54974 0.67975 0.062661 -0.85364 0.32606 -0.65349 -0.11437 0.00029314 0.64884 1.5202 
excite 0.11252 -0.5513 0.28653 -0.51155 0.9179 -0.52216 -0.87658 0.34141 0.71889 0.81534 
resort 0.46991 2.0857 0.1093 0.16483 0.36492 -0.29978 -1.7528 -0.73965 1.4531 0.62959 
babe -0.63526 0.22903 0.2746 -0.45688 0.93925 -0.16469 -0.75252 -0.082689 0.97795 0.1875 
mountain 0.6216 1.2594 -0.57219 1.1944 1.3643 -0.26556 -1.2284 0.42192 1.1864 0.18854 
orlando 0.20652 1.2547 0.58479 -0.6315 0.0089273 -0.69542 -2.162 -0.59614 0.39914 0.83499 
america 0.1256 0.8076 -0.24337 -0.025869 0.75422 -1.4379 -0.93141 0.89075 0.30526 0.20597 
trip -0.24056 0.56795 0.097166 -0.16475 0.63435 -0.28701 -1.5541 0.44546 0.81055 -0.13961 
grill -1.2515 1.2449 0.034701 -0.66573 1.7729 0.31921 -0.45745 -0.81171 -0.067052 0.78885 
tomorrow -0.32252 -0.28636 0.39964 -0.66879 1.0294 -0.27878 -0.77698 0.94591 0.19628 0.79161 
lot -0.15952 -0.23815 0.30068 0.18992 1.1097 -0.29786 -0.99874 0.12258 0.78898 0.38395 
monday -0.78948 -0.2054 0.23155 0.002375 0.86613 0.14491 -1.0568 0.9104 0.40803 0.38096 
l -1.2552 0.30181 0.21093 -0.8 0.3589 -0.54015 -0.62806 0.51377 0.17913 1.0052 
fam -0.80464 0.18886 0.5097 -0.64316 0.9576 -0.45893 -0.5265 -0.28883 1.0977 0.28745 
sun -0.50141 1.0626 0.12985 0.4645 0.39484 0.47822 -1.3207 1.0025 0.9257 0.31043 
would 0.016423 -0.29755 0.88702 0.55482 1.4372 -0.25493 -0.93697 0.22848 0.85206 0.57029 
wish 0.080484 -0.22733 0.62003 -0.21954 0.9929 -0.046213 -1.7016 -0.048191 0.96151 0.18028 
drink -0.6075 0.34245 0.35418 0.035287 1.3158 0.2717 -1.0107 -0.36985 -0.23296 0.76506 
cool -0.46254 0.076131 0.18831 0.38479 0.64547 -0.2975 -0.78797 0.34589 0.55474 0.71276 
tell -0.49511 -0.23367 1.0975 0.44151 1.1138 -0.35631 -0.77585 0.061425 0.62401 0.81898 
brother -0.21193 0.10833 0.75307 -0.51555 1.1815 -0.46872 -0.61831 -0.30116 0.91936 0.49245 
grand -0.37007 1.1388 -0.11559 0.42212 0.53284 -1.0118 -1.201 -0.10112 0.83375 0.0093928 
soon -0.71539 -0.058547 0.69295 -0.33428 0.20896 -0.35014 -0.97756 0.68039 0.71049 0.78385 
leave -0.18779 0.056429 0.62231 0.16108 1.0804 -0.096007 -0.95325 0.52327 0.42131 0.55026 
visit -0.26872 -0.081312 -0.065865 -0.40266 0.72583 -0.1397 -0.89891 0.1792 1.0627 0.43576 
east -1.5838 0.63549 -0.12284 0.085198 1.2038 -0.56095 -0.28626 0.5418 0.70123 -0.1651 
jersey -1.4821 0.6549 0.09987 0.0191 1.0602 -0.69634 -0.4255 0.5979 0.68293 -0.26452 
everything -0.1863 -0.27972 0.32296 0.15388 0.97835 -0.091284 -1.0482 0.15144 0.66753 0.53787 
b -1.1661 0.28529 0.6257 -0.62394 0.85993 -0.57466 -0.30107 -0.033047 0.12732 0.95178 
santa -0.39754 0.4594 0.31191 -0.76229 0.18991 0.85186 -1.7371 0.12172 1.3446 0.74849 
nice -0.36629 0.1797 0.2146 0.17443 0.83139 0.028866 -1.0915 0.37104 0.59882 0.39165 
kingdom 0.96442 0.5506 0.56621 -0.20781 0.79951 -0.76552 -3.3889 -0.98185 0.65033 0.81062 
e -1.3442 0.40128 0.32185 -1.093 0.81178 -1.0191 -0.47232 0.066105 -0.17172 1.1608 
museum -0.076458 0.17156 -1.3601 -0.16881 -0.36963 -1.7152 -1.3982 0.37025 0.87665 1.3585 
field 0.30414 0.94528 0.14143 -0.15548 1.9244 -1.5274 -0.081474 0.43806 0.2282 0.40125 
glad -0.033717 -0.28204 0.73455 -0.41727 1.5585 -0.43321 -0.88101 0.12659 1.2056 0.15525 
bring -0.1495 -0.20844 0.40346 -0.17735 1.0882 -0.13469 -0.71576 0.3719 0.59329 0.78078 
travel -0.77298 0.70447 -0.42789 0.35829 0.0085627 -0.36868 -2.171 0.65588 0.62459 -0.080984 
black -0.48289 0.07432 -0.35146 0.5924 0.73461 -0.1233 -0.56602 0.33263 0.13544 1.3742 
country 0.24281 0.82271 -0.53348 -0.32217 1.5949 -0.66172 -0.50051 -0.085488 0.47289 0.51209 
around -0.2101 0.21311 0.39257 0.33034 0.9161 -0.32943 -1.0018 0.34961 0.58476 0.3397 
hard -0.33583 0.23767 0.87047 0.51688 0.80838 -0.39501 -1.096 0.27552 0.34261 0.58194 
central -0.84194 0.40498 -0.37061 0.23744 1.1692 -1.1337 -1.1135 0.45237 0.74489 -0.56393 
michigan -0.71415 0.46657 -0.43124 0.17998 1.345 -0.81671 -0.40466 0.27449 1.3521 -0.27238 
forever -0.10456 0.1029 0.43057 -0.31698 1.0249 -0.46361 -0.99836 -0.059696 1.019 0.088463 
moment -0.030496 -0.24913 0.39067 0.11461 0.48901 -0.52996 -1.5711 0.41802 1.1035 0.13273 
month -0.033908 -0.20097 0.57526 -0.8082 1.5503 -0.092163 -1.1153 0.72942 0.49176 0.2786 
toronto -1.1118 -0.20432 -0.78939 0.58161 0.12489 -1.1177 -1.6869 -0.27511 0.33029 0.4491 
dallas -0.2727 0.75093 -0.031066 -0.69373 0.409 -0.46122 -0.25288 0.16189 0.60168 1.377 
boston -0.85965 0.27117 -0.77572 -0.34291 0.51688 -0.84169 -1.1249 0.555 0.86899 -0.05447 
bridge -0.98579 0.94324 -0.95706 0.21828 1.205 -0.55539 -1.6416 1.2465 0.048609 -0.40684 
side -0.92194 0.23566 0.15552 0.24999 1.3286 -0.082863 -0.69965 0.47831 0.58405 0.03774 
disneyland 0.88304 0.36445 0.58938 -0.19542 0.75244 -0.15022 -2.9211 -0.73928 0.63138 0.56229 
break -0.053993 0.47101 0.61694 0.1538 0.93323 0.036591 -0.78945 0.49038 0.65779 0.69529 
stay -0.55784 -0.026973 0.84913 0.18881 0.6763 -0.21813 -0.89266 0.88309 0.60721 0.71965 
eat -0.72573 0.18785 0.56532 0.23059 1.8402 0.48158 -0.95159 -0.53252 -0.15495 0.72917 
dad 0.11225 0.090016 0.51175 -0.38847 1.506 -0.14229 -0.76775 -0.34712 0.96195 0.45544 
yes -0.40629 -0.32184 0.1238 0.39318 1.042 -0.14301 -0.86477 0.089763 0.3349 0.80823 
head -0.36832 0.70679 0.58919 0.1861 0.53073 -0.030565 -0.51099 0.41541 1.0121 0.91077 
point -0.15573 0.97101 -0.13453 0.094438 1.1017 0.11072 -0.52108 0.79686 0.84137 0.36551 
crazy -0.40002 0.1509 0.86066 0.10135 1.052 -0.38415 -0.85815 -0.074428 0.62406 0.40918 
dog -0.26754 0.5056 0.25894 0.99919 1.1407 0.25121 -0.74081 -0.70672 1.2584 0.686 
austin -0.24737 0.76854 -0.37523 -1.0915 0.55018 -0.39545 -0.70385 0.30213 0.14573 1.0972 
star 0.93305 0.51667 0.107 -0.14391 0.72968 -0.8792 -1.3708 0.12303 -0.023363 1.1903 
top -0.42867 0.20649 -0.52679 0.79594 1.0842 -0.20902 -0.9971 0.71575 -0.14731 0.58932 
lovely -0.51519 -0.53102 -0.42503 -0.45918 0.78748 0.24783 -1.1822 0.01732 1.0609 0.53898 
river -0.37094 1.343 -0.64218 0.32923 1.2955 -0.34146 -0.70219 0.32029 0.89087 -0.074812 
cafe -1.0782 0.61728 -0.4478 -0.16106 0.89236 0.18923 -1.1842 -0.78468 -0.068211 0.74514 
nothing -0.37942 0.050077 0.59602 0.37671 1.1062 0.024008 -1.0576 0.35708 0.79939 0.25444 
virginia -1.0307 1.0162 0.16807 -0.011172 0.96642 -0.43134 -0.024776 0.44686 1.7337 0.095958 
district -1.7201 0.31146 -1.0803 -0.12639 0.1582 -1.0086 -0.84752 0.76054 0.79418 0.48703 
shit -1.1073 0.19114 1.576 0.66623 0.95434 -0.76661 -0.59699 0.15717 0.17724 1.0477 
catch -0.50636 0.25649 0.63094 0.031744 0.84386 0.010127 -0.94056 0.5594 0.29169 0.5719 
hour -0.36604 0.42836 0.49262 -0.77748 1.4647 0.22418 -1.1273 1.054 -0.051124 0.329 
fort 0.17281 1.4804 0.48368 -0.94292 0.54144 -0.1541 -0.2808 0.48894 1.5217 1.2307 
francisco -0.70185 0.96485 -0.96532 -1.0417 0.55377 -0.030082 -2.0313 0.87655 0.14756 0.23315 
many 0.0047866 -0.55088 0.29405 0.15568 1.1447 -0.15236 -1.1651 0.42028 0.70116 0.58347 
county -0.38928 1.1568 -0.41112 -0.21559 0.44249 -1.0932 0.025777 0.66892 1.6731 0.73408 
lil -0.72241 0.15453 1.0691 -0.1644 0.90095 -0.16895 -0.43509 -0.42317 1.0229 0.90245 
full -0.062691 -0.28284 0.16943 -0.1699 0.71001 0.211 -1.0201 0.598 0.53706 1.089 
fl -0.023836 2.1515 0.44708 -1.0412 0.32999 0.34365 -1.4331 -0.17749 0.74664 1.1115 
open -0.22605 -0.25048 -0.044617 -0.52561 1.1019 -0.15875 -0.90727 0.85762 -0.21311 1.013 
woman -0.082698 -0.77824 0.17618 0.024958 0.97102 -0.65323 -0.78145 0.41798 1.042 0.68388 
vote -0.43241 -0.17236 -0.27761 0.44556 1.6866 -1.6378 0.13815 1.7577 0.76993 0.65709 
free -0.10197 0.11747 0.38076 -0.42238 1.2281 0.018587 -0.60056 0.61594 -0.35579 1.3653 
video -0.6221 -0.39529 1.2554 0.097323 0.17336 -0.71614 -1.1398 0.79334 0.35166 1.3609 
gonna -0.43133 0.10361 1.2385 -0.0086569 1.1251 -0.42897 -0.89564 0.3664 0.47195 0.46533 
manhattan -1.9468 0.077392 -0.70219 0.32482 0.85894 -0.91883 -2.0133 0.70827 -0.15624 -0.46454 
room -0.57364 -0.074886 -0.15167 0.18744 0.37582 -0.39633 -0.943 0.22394 0.3619 0.89282 
theatre -0.2737 0.040385 -0.26196 -0.53676 0.4891 -1.9192 -1.1267 -0.66678 -0.036133 0.83079 
valley 0.064785 1.3776 -0.43095 0.38347 1.2069 -0.42316 -0.52613 0.22424 1.1171 0.24927 
put -0.11495 -0.22961 0.79471 0.49311 1.1104 -0.33926 -0.76706 0.26924 0.57532 0.89465 
style -1.2305 -0.50387 -0.62042 0.025497 0.25851 0.29535 -0.84192 0.60334 0.564 1.3957 
illinois -1.4393 -0.10872 -0.29441 0.20229 1.2951 -0.36393 -0.16447 0.54679 1.3291 -0.075796 
tour 0.096231 0.35794 0.41556 -0.080566 0.21912 -1.9271 -1.1062 0.043584 0.26156 0.98812 
thanksgiving -0.59796 0.10853 0.26561 -0.66847 1.2254 0.43291 -0.99211 -0.31735 1.2728 0.14584 
class -0.27651 -0.52144 0.21221 -0.60507 1.1982 -0.27883 -0.46622 1.2955 0.41957 0.91616 
tennessee -0.84753 0.04804 -0.030197 0.95575 1.3877 -1.3432 -0.49891 -0.52233 1.4023 -0.0094136 
c -1.3114 0.3733 0.098046 -0.74903 0.86199 -0.71646 -0.11575 0.83052 0.41663 0.73301 
10 -0.13146 0.13146 0.38972 -0.84401 1.5278 -0.096476 -0.83048 1.2309 -0.19353 0.74882 
gorgeous -0.42005 -0.36095 -0.67821 -0.032643 0.59518 0.36497 -1.1501 0.61204 1.401 0.53821 
wonderful -0.17947 -0.50671 -0.25998 -0.59678 1.0569 -0.21359 -1.4763 -0.10819 1.249 0.039532 
do -0.34821 -0.30201 0.41293 0.24412 1.0223 -0.079095 -0.49983 0.7582 0.69924 0.98612 
arena 0.44777 0.91737 0.56757 0.2728 1.2473 -2.5021 -0.18796 -0.64151 0.48448 1.5495 
super -0.12178 -0.19311 0.21554 -0.10162 1.1287 0.010414 -0.62968 0.38122 0.283 1.056 
may 0.53947 -0.023794 0.32328 0.010595 1.3291 -0.24922 -1.2048 0.53792 0.64273 0.43132 
set -0.25605 -0.26044 0.29185 -0.062181 0.53475 -0.16589 -1.0468 0.96614 0.1043 1.1802 
bad -0.57442 0.33388 0.79597 0.36125 1.0371 -0.21194 -0.62513 0.3873 0.57297 0.48856 
happen -0.2307 -0.26723 0.55629 0.23072 0.75909 -0.39348 -1.1973 0.26873 0.42028 0.60216 
nashville -1.0736 -0.26534 -0.24096 0.50303 0.89215 -1.163 -0.82866 -0.46121 0.5312 0.33531 
drive 0.06989 1.2088 0.62819 -0.16853 0.66984 0.12216 -0.89928 0.67668 0.65913 0.7055 
special -0.18424 -0.58771 0.20763 -0.75715 1.094 0.33099 -1.0589 0.14977 0.50179 1.0997 
sure -0.14723 -0.229 0.80376 0.16559 1.0543 -0.0098095 -0.87516 0.39329 0.66875 0.86995 
welcome -0.16873 0.16424 0.22265 -0.5697 0.51176 -0.47623 -0.7865 0.056579 0.8602 0.61241 
color -0.29788 -0.31114 -0.8644 0.61052 0.60174 0.39875 -0.75517 0.94772 0.94374 1.5687 
already -0.37426 0.21886 0.91043 -0.27217 1.0356 -0.26418 -0.95937 0.34588 0.7908 0.16869 
link -1.1543 -0.21489 1.0187 -0.30912 0.052847 -0.5093 -0.71123 1.2858 0.41812 2.0941 
market -1.046 0.072416 -1.3955 -0.25591 0.94305 -0.19447 -1.0659 -0.32671 0.18928 0.65152 
breakfast -1.0734 0.30039 -0.23951 -0.10703 1.5499 0.66099 -1.1782 -0.45072 -0.016813 0.47933 
lounge -1.6093 0.3812 0.098899 -0.74885 0.44984 -0.10005 -0.64944 -0.0029374 -0.299 1.2642 
bay -0.094431 1.7625 -0.17024 -0.59154 0.74892 -0.21103 -1.3461 0.17081 0.43152 0.24463 
farm 0.23079 0.3794 -0.92715 0.48294 1.6219 -0.17557 -0.46774 -0.72189 1.1694 0.79715 
win 0.2175 0.25163 0.54451 -0.00081506 1.5115 -0.92443 -0.29535 0.43193 0.14946 0.85411 
x -0.9205 0.15469 0.25798 -0.44828 0.37946 -0.76106 -0.56059 0.54955 -0.26007 1.3585 
hey -0.56285 -0.018467 0.55902 0.077312 0.78844 -0.47717 -0.66752 0.15355 0.71567 0.55817 
ask -0.18111 -0.44317 0.83698 0.011326 1.5174 -0.15296 -0.79367 0.12978 0.84507 0.5467 
cousin -0.43985 0.23921 0.039398 -0.68369 1.0422 -0.12839 -0.78999 -0.56694 1.2035 0.25501 
mother -0.10624 -0.34403 0.061128 -0.6259 1.3784 0.22841 -1.1747 -0.41875 1.1722 0.34576 
model -1.1361 -0.95776 -0.1995 0.22616 -0.11402 -0.25038 -1.2054 1.0236 1.1217 1.1339 
early -0.41971 -0.12538 0.16194 -0.54456 1.2933 0.15889 -0.84326 0.42573 0.5064 0.43032 
part 0.079281 -0.2925 0.33628 -0.38611 1.048 -0.43696 -0.82979 0.54333 0.61876 0.67165 
hang -0.38186 0.14322 0.31258 -0.19098 0.78689 -0.19177 -0.91413 -0.15139 0.6892 0.51243 
person 0.10267 -0.36542 0.5568 -0.092606 1.2797 -0.47222 -1.0202 0.011594 1.1564 0.23732 
american 0.080489 0.43149 -0.24315 -0.15141 0.50163 -1.5156 -0.63902 0.35702 0.15645 1.1217 
true 0.14657 -0.25255 0.48258 0.27503 0.62435 -0.50227 -1.591 -0.11176 0.48976 0.64777 
fitness -0.89927 0.51725 0.16815 0.51975 1.1359 0.073621 -0.94311 1.8324 -0.35851 0.5887 
tx -0.25277 1.535 -0.67377 -1.603 1.0297 -0.29459 -0.14587 0.047214 0.14101 1.6654 
ice 0.19305 0.66984 -0.57983 0.91719 1.8405 -0.38132 -1.0177 -0.76328 -0.069393 0.87878 
book -0.24784 -0.67319 -0.14956 -0.32872 0.63486 -0.042605 -0.78452 0.8219 0.45281 1.4558 
build -0.60559 0.096047 -0.51167 0.58134 0.70887 -1.3243 -1.0986 1.2322 0.065616 0.25599 
wear -0.31847 -0.49461 -0.16374 0.75784 0.91887 -0.10058 -0.35331 0.64958 0.95586 1.3976 
follow -0.91276 -0.38863 1.0227 0.44774 0.039728 -0.31408 -1.2527 0.72451 0.78714 1.1298 
hello -0.74565 0.40093 -0.14333 -0.11942 0.32901 -0.31755 -1.2066 0.45923 0.54181 0.25936 
without -0.26396 -0.10243 0.65382 0.26425 1.3252 -0.29748 -0.73992 0.11426 1.0152 0.28766 
6 -0.24909 0.11053 0.45693 -0.76067 1.4796 -0.28906 -0.92813 1.1031 -0.15347 0.43106 
fashion -1.4778 -0.92098 -0.86411 0.01609 -0.051181 -0.24218 -1.2634 0.93313 0.6022 1.3492 
bae -0.79174 0.34666 0.42358 -0.069961 0.7635 -0.44389 -0.68623 -0.29796 0.55192 0.44804 
squad -0.54774 0.42816 0.64558 -0.27091 0.73599 -0.84084 -0.56614 0.23664 0.53872 0.42306 
mean -0.19544 -0.21476 0.73866 0.40396 1.1117 -0.096279 -1.0271 0.11924 0.57522 0.57964 
help 0.14298 -0.4414 0.44718 0.23244 1.2421 -0.034696 -0.74781 0.55271 0.75355 0.91447 
event -0.040776 -0.46309 -0.39078 -0.85019 0.54101 -0.7407 -0.84154 0.47384 0.3668 1.2172 
use -0.16484 -0.2698 0.60297 0.41636 0.86989 0.41919 -0.81106 0.76416 0.4262 1.5911 
dress -0.58092 -0.76585 -0.46877 0.11041 0.79251 0.26048 -0.58269 0.45145 1.0002 1.3953 
de -0.047933 1.0057 -0.013424 -1.3197 0.37453 -0.46115 -1.1941 -0.75875 0.11158 1.1258 
mr -0.39673 -0.35277 -0.37082 -0.62753 0.9378 -0.6208 -0.44467 -0.42978 0.72541 0.99268 
eye -0.053993 0.04077 0.078884 0.81208 0.53277 0.02723 -0.95288 0.19096 0.91149 1.0951 
memorial 0.64198 0.84549 -0.80867 -0.7578 1.5542 -1.788 -0.98069 0.98663 0.58139 0.10001 
seattle -0.28947 0.90998 -0.76723 -0.10718 -0.18673 -0.55824 -1.3668 0.59858 0.80061 0.79383 
support -0.16653 -0.66619 0.51525 -0.36841 1.0339 -0.76009 -0.38355 0.74341 0.55872 1.2025 
16 -0.1574 0.41667 0.15403 -1.3173 1.3217 -0.61845 -0.96349 1.0024 -0.095508 0.33976 
im -0.51415 -0.20897 1.2422 0.48236 1.0182 -0.73465 -0.65732 0.39797 0.54019 0.8164 
turn -0.35841 -0.053402 0.75629 -0.13902 1.08 -0.31274 -0.82424 0.4879 0.30809 0.6415 
gift 0.24941 -0.95874 -0.21796 -0.54086 1.1038 0.37366 -1.2455 -0.076633 0.80508 1.3721 
diego -0.37471 1.0145 -0.14809 -1.0856 0.20667 0.4369 -1.4375 0.50169 1.0809 0.7407 
fuck -0.72963 0.24068 1.5352 0.76661 0.92374 -0.8709 -0.74657 0.061613 0.24223 1.0186 
someone -0.10893 -0.46515 0.83618 0.73297 1.2024 -0.037863 -1.1238 0.15291 0.7897 0.79899 
something -0.33048 -0.35986 0.71107 0.59355 0.92498 -0.10133 -1.2319 0.46857 0.57714 0.64568 
laugh -0.50654 -0.22285 1.1213 0.38525 1.1093 -0.41142 -1.2402 -0.13331 0.76325 0.23955 
sky -0.5904 1.1636 -0.35091 0.77383 0.27686 -0.21111 -1.2722 0.94551 0.78836 0.34384 
mall -0.66902 1.0986 -0.45099 -0.16897 0.61819 -0.68634 -0.492 -0.29974 0.57262 0.60753 
village -0.81841 0.64588 -0.80187 0.15371 1.095 -0.3638 -0.79056 -0.078477 0.63269 -0.095092 
line -0.72535 0.49986 -0.029909 0.3653 0.7811 -0.30495 -0.52494 1.0893 0.33475 0.56638 
brunch -1.523 -0.055845 -0.41243 -0.55898 1.3549 0.62101 -1.2819 -0.37755 0.1729 0.26821 
guess -0.35551 -0.085493 0.66233 0.24923 1.1228 -0.20448 -0.74662 0.13401 0.62553 0.56389 
mc -0.56629 0.86626 0.05837 -0.48078 1.0872 -1.1361 0.025533 -0.71578 0.33829 1.061 
gotta -0.57375 0.21492 0.97538 0.67518 1.0158 -0.061099 -0.65482 0.47332 0.47101 0.86483 
concert 0.11104 -0.052567 0.37149 -0.47046 0.67507 -1.8093 -0.89324 -0.20818 0.31572 0.82023 
begin -0.17004 -0.1835 0.078967 -0.31286 0.8542 -0.41891 -1.2009 0.43375 0.85773 0.13685 
queen -1.1075 -0.15548 -0.14194 -0.25092 0.48927 -0.87484 -0.85918 -0.18529 0.33459 0.53407 
dc -0.77103 0.40181 -0.75172 -0.30558 0.3932 -1.2649 -0.76251 0.88841 0.3941 0.46264 
since -0.26811 -0.10696 0.90187 -0.5686 1.587 -0.44165 -0.79918 0.52151 0.43157 0.18268 
r -1.3201 0.20928 0.58465 -0.90853 0.7909 -0.94663 -0.34121 0.33567 0.061132 1.2243 
throwback -0.5735 0.12283 0.38344 -0.33353 0.76647 -0.7599 -1.1366 0.48733 0.71451 -0.14867 
almost -0.16466 0.014874 0.40068 -0.08108 1.3298 -0.10063 -0.83669 0.52282 0.34028 0.4562 
7 -0.2739 0.16799 0.38947 -0.95752 1.4526 -0.28839 -0.74941 1.1643 -0.2573 0.7123 
though -0.17796 0.12134 0.75581 0.59903 1.3719 -0.24412 -0.77045 0.3576 0.56683 0.41297 
ocean -0.74393 1.6518 0.39175 -0.42645 0.53582 0.69286 -1.4828 0.86388 1.2829 0.19186 
share -0.23256 -0.78462 0.41586 -0.17486 0.78935 0.035701 -1.324 0.26737 0.67863 0.90176 
p -1.2062 -0.09243 0.49217 -0.74627 1.2035 -0.5445 -0.28396 0.37107 0.23249 0.73861 
vibe -1.1289 0.14047 0.21269 -0.11705 0.10045 -0.056375 -1.1964 0.81535 0.57547 0.54175 
2017 -0.53024 -0.25705 0.23828 -0.46306 0.45792 -0.30819 -1.2664 0.78739 0.6272 0.3553 
creek 0.27793 1.3797 -0.93091 0.32796 1.8838 -0.18393 -0.25561 0.012232 0.99005 0.53739 
forget -0.10534 -0.33484 0.45961 0.26931 1.2299 -0.40073 -1.179 0.77606 0.15164 0.38624 
weather -0.72949 0.63586 -0.023062 0.43923 1.0856 0.67481 -0.99893 0.92426 0.9911 0.1696 
talk -0.35932 -0.16161 1.043 0.47299 0.89572 -0.48168 -0.73891 0.25058 0.51672 0.98183 
newyork -1.4549 -0.084298 -1.088 0.54845 0.64833 -1.2584 -2.6877 0.68256 -0.24347 -0.45557 
late -0.84357 -0.19192 0.61926 -0.3598 1.2377 0.018847 -0.98242 0.15181 0.31556 0.37102 
vacation -0.34835 1.0405 0.18233 -0.1104 0.25188 0.20983 -2.1751 0.16275 1.0256 -0.11408 
cheer -0.15504 0.00074734 -0.0201 -0.52967 1.3024 -0.42437 -0.60651 0.22801 0.66725 0.30988 
photography -0.79185 -0.49339 -0.81917 0.32059 -0.079236 -0.4558 -1.4611 0.99734 1.0159 0.60738 
senior -0.1658 -0.055839 0.036795 -0.59265 1.6421 -0.77844 -0.054474 0.7351 1.4986 0.24592 
whole 0.092942 -0.011042 0.63262 0.10603 1.4203 -0.18941 -1.0266 -0.044509 0.28179 0.58749 
away 0.11007 0.36211 0.72352 -0.073502 0.98319 -0.16482 -1.1712 0.61673 0.44048 0.43082 
walt 0.90175 0.62796 0.64069 -0.40539 0.85153 -0.77072 -3.4608 -0.72802 0.30694 0.82208 
winter -0.3409 0.4319 -0.70923 0.42674 0.69679 0.0081292 -1.2801 0.5945 0.69325 0.24235 
halloween -0.12071 -0.1963 0.17684 0.19201 0.82476 -0.94375 -0.97561 -0.64272 0.45805 0.69045 
ride 0.25535 1.059 0.70904 0.36069 0.91 -0.39044 -1.2138 0.4773 0.34901 0.33494 
believe 0.06125 -0.46636 0.83916 -0.066364 1.2607 -0.56654 -1.3867 0.38869 0.65426 0.25552 
green -0.328 0.56548 -0.74237 0.55382 1.5181 0.16556 -0.54588 -0.078202 0.23426 0.815 
hit -0.60549 0.21092 1.0812 0.062111 0.76885 -0.2834 -0.7128 0.86063 -0.065155 1.1908 
ontario -0.91307 -0.23244 -0.83221 1.0887 0.44566 -0.97783 -1.5323 -0.36843 1.1468 0.06711 
zoo -0.14589 0.90802 -0.26335 -0.028809 0.21404 -0.88316 -1.0842 -0.9121 2.4259 0.66519 
camp 0.66129 0.89704 -0.079503 -0.049437 1.2614 -0.29026 -0.44421 0.85276 1.101 0.59436 
king -0.32061 0.48152 0.15849 -0.16967 0.9848 -1.0547 -0.61033 -0.26537 -0.19472 0.80625 
worth 0.073913 1.0564 0.50435 -0.32649 0.85863 -0.046135 -0.6116 0.67842 0.90751 0.70237 
bowl -0.61084 0.64145 -0.058701 0.23797 1.8958 -0.30381 -0.44113 -0.20831 -0.32127 0.54979 
hand -0.0050916 -0.073125 0.3303 0.46592 1.1436 0.066587 -0.57351 0.16372 0.54476 1.2496 
repostapp -1.1412 -0.64956 0.6644 -0.56092 0.21871 -0.031599 -0.97651 0.51867 0.49328 1.5008 
bio -1.4109 -0.054136 1.0316 -0.37099 -0.053972 -0.51893 -0.79173 1.4501 0.38973 2.1471 
festival -0.046322 0.78259 -0.28041 -0.38505 0.22505 -1.1933 -1.4876 -0.075178 -0.12319 0.72527 
lose 0.17647 0.36504 0.62546 0.6297 1.4836 -0.78343 -0.72033 0.37695 0.41127 0.39597 
store -0.080428 -0.17686 -0.79842 -0.10962 1.1085 -0.1857 -0.79448 0.31572 -0.48534 1.5734 
philadelphia -1.3327 0.45362 -0.23228 0.40968 0.36455 -1.6558 -0.66254 -0.25643 0.60639 0.54211 
as -0.65711 0.49224 1.5753 0.75288 1.2242 -0.35584 -0.58731 -0.025628 0.23235 1.11 
colorado 0.16358 0.82772 -1.2653 0.63129 1.4373 0.21567 -1.1046 0.93629 0.92489 0.25728 
arizona -0.25695 1.0838 -0.23906 1.2552 0.33795 -0.44351 -0.76062 0.346 1.8428 0.62779 
hike 0.23775 0.97198 -0.48431 0.85059 1.2801 0.37238 -1.6479 1.1861 1.1503 -0.11674 
drop -0.81583 0.19177 1.1687 -0.23346 0.56944 -0.41385 -0.6532 0.76582 -0.049498 1.3672 
unite 0.20835 0.45052 -0.43996 -0.1963 0.83839 -1.7873 -0.46712 0.92385 0.81402 0.64836 
please -0.34613 -0.41556 0.57494 0.29362 0.81882 -0.10231 -0.9435 0.37635 0.32604 1.096 
memory 0.022341 -0.056147 0.14243 -0.3084 0.94016 -0.58877 -1.5601 0.3058 0.93958 -0.30208 
sunshine -0.65618 0.87364 -0.073713 0.087524 0.5393 0.50151 -1.2701 0.69093 1.1394 0.12325 
sometimes -0.34364 -0.088937 0.65549 1.0364 1.0431 0.015662 -1.2505 0.37105 0.83698 0.39097 
v -0.30516 0.64871 0.22161 -0.45495 0.97913 -1.0637 -0.23303 0.3305 -0.1255 1.0774 
snow -0.051253 0.56735 -0.19182 1.0623 1.0948 -0.044614 -1.1915 0.44016 0.93058 0.10135 
bro -0.84954 0.2941 1.4455 -0.23497 0.75148 -0.58861 -0.49857 0.082577 0.6696 0.84902 
fav -0.40136 0.11577 0.26722 -0.47312 1.2212 -0.53964 -0.55207 -0.22708 0.79688 0.33368 
water -0.20834 1.3154 0.053579 0.69804 0.85166 0.32351 -1.2816 0.56727 0.27316 0.41731 
job 0.033595 -0.31162 0.35884 0.034158 0.95825 -0.29898 -0.5559 0.39204 0.80444 1.0566 
word -0.099742 -0.93003 0.4731 0.36073 1.1102 -0.59509 -1.4717 0.11772 0.64918 0.34484 
also -0.045235 -0.43498 0.45928 0.089938 1.1625 -0.049003 -0.89497 0.24914 0.51437 0.91149 
car 0.11987 0.86814 0.42773 0.47866 0.59096 -0.17787 -0.59633 0.81424 0.4393 1.2299 
wcw -0.7655 -0.18088 0.51383 -0.082316 0.97109 -0.27219 -0.78564 -0.12552 1.1888 0.14947 
9 0.062232 0.13451 -0.048851 -0.87497 1.6033 -0.77057 -1.3328 1.3732 -0.51727 0.31761 
john -0.64448 0.30864 -0.32182 -1.1337 1.0336 -1.4678 -0.33993 0.33469 0.48917 0.50705 
kentucky -1.1376 0.037769 -0.078014 0.57957 1.8692 -0.96543 0.19358 -0.25061 1.5958 0.21379 
lucky -0.21121 -0.2037 0.3589 -0.27689 1.4189 -0.15365 -0.93691 -0.23441 1.1674 0.17208 
tho -1.0023 0.25675 0.81421 0.63019 0.78403 -0.45308 -0.53317 0.13668 0.31854 0.80878 
rise -0.30688 0.039724 -0.58595 0.20922 0.79177 0.045034 -0.81129 0.48384 0.51351 0.82016 
pizza -0.98947 0.39557 -0.17508 -0.17979 1.7029 0.27638 -0.70576 -0.64828 -0.18533 0.74304 
pennsylvania -1.0978 0.15665 0.025713 0.71951 1.116 -1.3903 -0.46398 -0.23297 1.487 -0.15771 
road -0.16688 1.0665 0.18265 0.16532 0.82472 -0.47136 -0.80923 0.81398 0.61476 0.24093 
song -0.38699 -0.42433 1.271 0.006375 0.38245 -1.1296 -1.2065 0.075465 0.10026 1.3572 
beat -0.50219 0.39946 1.0116 0.068058 0.728 -0.67272 -0.49085 0.51282 0.10139 1.0135 
couple -0.25548 -0.47312 0.064053 -0.37618 1.023 0.079204 -1.1247 0.36656 0.95008 0.38342 
indiana -0.21145 0.33041 0.17787 0.13324 1.0649 -0.92203 -0.094763 0.15201 2.0835 0.42109 
g -1.2381 0.35189 0.70044 -0.88696 0.78067 -0.76174 -0.165 0.15991 0.33403 1.0033 
sport 0.1009 0.90872 0.13041 -0.24762 1.3472 -0.75504 -0.3123 0.32222 -0.26936 0.93928 
train 0.1439 0.37094 0.14688 0.34285 1.2196 -0.5622 -0.61813 1.3748 -0.0054081 0.78212 
11 0.047635 0.17591 -0.21787 -1.1625 1.578 -0.87604 -1.4953 1.4885 -0.59571 0.33442 
co -0.049277 0.47448 -1.1119 -0.32119 1.5198 0.073657 -0.51619 0.24606 -0.11439 1.0449 
8 -0.18699 0.12546 0.37433 -0.97293 1.5572 -0.26999 -0.97437 1.2611 -0.30831 0.52506 
remember -5.9684e-05 -0.30664 0.64316 -0.042179 1.1547 -0.60483 -1.0701 0.68734 0.59604 0.30783 
fan 0.38306 0.1356 0.7302 0.055406 1.3758 -1.1226 -0.53658 0.019373 0.23036 0.88822 
nigga -1.2098 0.53455 2.0745 0.69743 1.0179 -0.7135 -0.49575 0.19603 0.31683 1.3385 
funny -0.79747 0.070801 1.2845 0.81757 0.71436 -0.74668 -0.89038 -0.26486 0.43955 0.81333 
kill -0.44952 0.11693 0.91037 0.12878 0.92316 -1.0436 -0.45611 0.21613 0.35874 0.80794 
move -0.16692 0.10508 0.74058 0.032409 0.87615 -0.36443 -0.91904 0.73707 0.48363 0.62116 
movie 0.22334 0.37269 0.66397 -0.51911 0.99911 -0.83078 -1.5129 -0.58722 -0.34015 0.72658 
eve -0.3389 -0.034729 -0.50882 -1.0001 0.99619 -0.19507 -1.0891 -0.42893 1.1599 0.30949 
ago -0.12513 -0.25843 0.44799 -0.57896 1.3385 -0.40161 -1.4377 0.76477 0.48205 -0.048443 
f -1.5947 0.37007 0.41011 -1.152 0.7851 -1.0533 -0.54163 0.47921 0.12539 0.65246 
company -0.37659 0.29471 -0.66633 -0.25479 1.3095 0.0070514 -0.64148 0.0013355 0.014013 0.87307 
change -0.054427 -0.38991 0.46109 0.54302 1.0408 -0.33829 -0.98501 0.88732 0.6995 0.61897 
cause -0.4356 -0.04252 1.0798 0.55282 1.0984 -0.34132 -0.77717 0.25156 0.69377 0.63613 
congrats 0.068927 -0.65194 -0.15137 -1.0355 1.5536 -0.57033 -0.3731 0.030052 1.0816 0.83912 
universal 0.58628 1.1052 1.1197 -0.30477 0.28982 -0.80527 -3.0563 -0.67002 0.23996 0.88643 
bear 0.32741 0.47039 0.078656 -0.080702 1.5626 -0.084486 -0.6425 -0.07768 0.83967 0.46714 
thursday -0.97159 -0.29444 0.46149 -0.57833 0.80432 -0.32904 -1.0413 0.78902 0.1856 0.36826 
cold -0.55037 0.695 -0.065236 0.94438 1.3313 0.43796 -1.0391 0.43711 0.28535 0.4255 
golf 0.46338 1.6772 -0.50511 -0.1375 1.4857 0.022565 -0.28154 0.23915 0.90809 0.89597 
wine -0.46894 0.28924 -0.66595 -0.49289 1.2184 0.67665 -1.4175 -0.33763 -0.0014785 0.75471 
pier -0.93607 1.3029 0.07754 -1.0529 0.93158 0.94478 -1.8039 1.1749 0.75147 -0.10921 
beer -0.36896 0.76702 -0.18312 -0.074053 1.5999 -0.00483 -0.88024 -0.36232 -0.54182 0.81231 
fair -0.59342 0.94683 -0.21696 -0.18099 1.0707 -0.44868 0.18955 0.346 1.4341 0.80527 
orleans -2.0667 0.27177 0.19367 -0.0069796 0.70395 -0.98768 -1.3576 -0.41195 0.07941 -0.09196 
golden -0.6213 1.0793 -0.70992 -0.26952 1.2751 0.22836 -1.5093 1.1632 0.13209 -0.0048255 
anyone -0.15876 -0.10072 0.93792 0.48315 1.5957 -0.019705 -1.094 0.13466 0.7967 0.27435 
tuesday -0.90221 -0.15388 0.20926 -0.3571 1.0177 0.30611 -0.75756 0.73708 0.22205 0.6668 
else -0.14066 -0.0052066 1.0361 0.58809 1.5407 -0.30031 -1.1328 0.19726 0.91392 0.091266 
station -0.6367 0.85138 -0.36331 -0.41445 0.97307 -1.2245 -0.68768 0.78955 -0.048944 0.11872 
soul -0.25925 -0.076463 0.42787 -0.15148 0.75621 0.0026542 -1.1352 0.29998 0.51896 0.56359 
father 0.23929 0.18549 0.52236 -0.84152 1.6629 -0.12168 -0.99573 -0.48232 1.0325 0.32237 
twin -0.163 0.13366 0.11256 -0.38117 1.1381 -0.36608 -0.68402 0.079086 1.1152 0.19362 
daddy -0.19532 0.39964 0.59298 -0.36179 1.3651 -0.089628 -0.68176 -0.693 0.93297 0.48106 
starbucks -0.26053 0.44187 -0.31454 0.45589 0.72974 0.43934 -1.1965 -0.6888 0.58432 1.187 
enough -0.13084 -0.076708 0.55835 0.21403 1.097 0.14042 -1.0148 0.31105 0.81098 0.51871 
wake -0.57626 0.32595 0.74517 0.51178 0.9428 0.21784 -1.0279 0.64583 0.8609 0.35195 
maryland -1.1763 1.0198 0.002396 -0.074643 0.57839 -0.31234 -0.17528 0.46627 1.6065 0.27787 
ball 0.1997 0.49779 0.38292 -0.075712 1.1934 -0.88996 -0.47406 -0.0086588 0.38544 0.68553 
pick -0.21956 -0.17306 -0.10535 0.13262 1.3299 0.07001 -0.47475 -0.059386 0.46592 1.0752 
mama -0.5371 0.21493 0.46412 -0.30787 1.1527 0.11629 -0.87771 -0.64341 0.91828 0.43888 
bitch -1.11 0.39268 1.4709 0.73842 0.88409 -0.57774 -0.67413 -0.057774 0.4395 0.81842 
grateful 0.089337 -0.52474 0.22604 -0.44999 0.94516 -0.060311 -1.4836 0.40938 1.3885 0.15596 
football 0.14162 0.70739 0.50774 -0.13623 2.1633 -1.156 0.23799 0.39986 0.76218 0.46249 
bday -0.99453 -0.12991 0.87927 -1.1929 1.3426 -0.18822 -0.90891 -0.57012 0.55294 0.42768 
fly -0.2362 0.53384 0.47447 0.017259 0.82028 -0.43292 -0.81943 0.66494 0.34454 0.46911 
surprise -0.29948 -0.44318 0.36482 -0.6524 1.1579 -0.064348 -1.0564 -0.31666 0.88175 0.4732 
charlotte -1.0104 0.74188 0.39219 -0.1467 0.28462 -0.48275 0.22413 0.40193 1.4777 1.389 
name -0.16501 -0.35457 0.46603 0.3407 0.97993 -0.51212 -0.69773 -0.1512 0.44267 1.0308 
salon -0.81379 -0.29141 -0.77907 -0.16006 0.2831 0.55827 -0.15461 0.60558 1.4355 2.2527 
12 0.1414 0.1467 0.066676 -1.2029 1.4407 -0.44112 -1.0648 0.93896 -0.35385 0.68437 
reunite -0.6509 0.43097 0.28876 -0.71681 1.2234 -0.47265 -0.80807 -0.28742 1.1156 -0.18537 
sleep -0.25583 0.28447 0.88026 0.70996 0.86515 -0.53489 -1.1562 0.34813 0.42273 0.42051 
bff -0.56672 0.17194 0.29726 -0.62662 1.2909 -0.29344 -0.72926 -0.28856 1.1262 -0.015834 
young -0.27026 -0.061409 0.64284 -0.082198 0.81073 -0.78469 -0.3665 0.16102 0.68719 1.0165 
future -0.16285 -0.28465 0.48454 -0.07243 0.57555 -1.1098 -0.70452 0.46373 0.90121 0.64472 
office -0.27562 -0.04004 -0.23919 -0.022612 0.49467 -0.31698 -0.78937 0.69154 0.60981 0.83436 
jam -0.3268 -0.078176 0.06185 -0.28039 1.1879 -1.1147 -0.41771 -0.19785 0.30392 0.66983 
wanna -0.52016 0.21908 1.3625 0.45367 1.133 -0.2836 -0.91537 0.18415 0.58333 0.57862 
j -0.80711 0.054122 0.20653 -0.51215 0.86665 -0.74957 -0.1826 -0.078521 0.21721 1.1301 
canyon 0.17615 1.6802 -0.55234 1.5128 0.64363 -0.53888 -1.7763 0.89818 1.2323 0.17895 
mine -0.20716 -0.11179 0.41974 0.12277 1.1998 -0.19312 -0.82334 -0.21806 1.0759 0.42258 
massachusetts -0.77577 0.16631 -0.86014 -0.20137 0.63301 -0.56449 -0.8621 0.33022 1.6054 -0.21681 
spot -0.68592 0.23257 -0.011072 0.15709 0.80227 0.11536 -1.0716 0.20301 0.051825 0.58991 
wednesday -0.94692 -0.41279 0.35167 -0.52331 0.86714 0.028515 -0.8855 0.6813 0.32561 0.63892 
sorry -0.33776 -0.12488 1.0262 0.42295 1.1077 -0.55114 -0.79147 -0.014913 0.67502 0.6104 
alabama -0.39706 1.2789 0.95905 -0.14692 1.3228 -0.4416 -0.0094046 -0.19447 1.6938 0.45248 
crew -0.35971 0.25686 0.26994 -0.36953 0.69965 -0.49513 -0.68918 0.23427 0.41392 0.64465 
land 0.10643 1.0278 0.13538 -0.12716 0.86674 -0.53003 -1.0473 0.25651 0.46769 0.25413 
chicken -1.3126 0.66604 0.38856 0.27665 2.2185 0.36601 -0.46976 -1.013 -0.36073 1.392 
mcm -0.34745 0.15368 0.49735 0.10222 1.2659 -0.42608 -0.89358 -0.32823 1.1303 -0.030959 
three 0.083612 0.035769 0.26539 -0.37669 1.4379 -0.11805 -0.97144 0.080175 0.59917 0.25206 
anniversary -0.22943 -0.3428 -0.054706 -1.4332 1.5097 -0.10791 -1.5982 -0.24755 0.3499 0.090369 
handsome -0.23206 -0.035402 0.007229 -0.51828 1.2628 -0.13328 -0.88689 -0.7741 1.2951 0.34921 
saint -0.34682 0.41525 -0.44374 -1.3031 0.95073 -0.84318 -0.044351 -0.080338 1.4099 0.91228 
bite -0.3082 0.23558 0.4892 0.45778 1.096 0.33886 -1.0741 -0.08584 0.55855 0.60479 
kansa -0.85064 -0.035125 -0.42443 0.037922 1.2985 -1.4402 -0.45394 -0.032852 1.0394 -0.0057762 
warm -0.4012 0.5344 0.11408 0.48438 1.1025 0.70322 -0.99145 0.62139 0.64988 0.54557 
second 0.076514 0.010008 0.49819 -0.3633 1.4055 -0.23783 -0.97192 0.50607 0.3677 0.38142 
saw 0.15608 0.037838 0.51254 0.37628 0.78772 -0.64511 -1.0862 0.10986 0.59663 0.62573 
community -0.18938 0.15508 -0.59236 -0.38776 1.2123 -0.74894 0.049097 0.70645 1.224 0.56528 
half -0.067142 0.30882 0.40762 -0.12973 1.599 0.028234 -0.84344 0.40211 0.31657 0.29199 
kind -0.23866 -0.36209 0.019176 0.43381 1.0847 -0.030492 -1.1041 0.070303 0.51948 0.5119 
mi -0.44444 1.2786 -0.14191 -1.0086 0.69019 -0.54951 -0.86868 -0.89072 0.19985 0.70887 
close -0.0040674 -0.10203 0.34727 -0.020261 0.95955 -0.16571 -0.99108 0.62488 0.37281 0.686 
wild -0.2776 0.84735 0.2445 0.49729 1.6499 -0.45802 -0.78594 -0.19904 -0.042492 0.35547 
nature 0.074454 0.6652 -1.0705 1.0331 0.67031 0.11021 -1.7228 0.96181 1.5269 0.08831 
damn -0.65646 0.1943 0.93797 0.7013 0.92968 -0.17502 -0.67157 0.13781 0.54411 0.81643 
prom -0.42243 -0.084194 -0.27536 -0.53818 1.2267 -0.39261 -0.23876 0.3462 1.6243 0.3827 
sea 0.27463 1.7759 0.0029565 -0.37038 0.40644 0.48195 -1.57 0.37898 0.67569 0.78609 
h -1.3818 0.15019 0.098233 -0.92218 0.9066 -0.92814 -0.13992 0.47251 0.21091 1.0493 
dj -1.433 0.090872 1.0649 -0.6203 0.35895 -0.65867 -1.0047 0.34199 -0.54385 1.267 
columbia -1.4301 0.48788 -0.58244 -0.13945 0.59462 -0.90849 -0.31278 0.8149 1.3974 0.2697 
gym -0.72501 0.22018 0.54759 0.88437 1.4405 -0.13287 -0.65514 1.5459 -0.10993 0.65234 
fresh -0.90626 0.3142 -0.22373 0.49768 1.0438 0.68795 -0.51464 0.28668 0.015111 1.5115 
gt -0.8982 0.5047 0.55097 -0.48025 0.447 -0.11777 -0.019326 0.84873 1.3253 1.5056 
care 0.071155 -0.26463 0.58182 0.41378 0.99221 0.055169 -0.54096 0.25503 1.1419 1.1753 
sign 0.046771 -0.099447 0.43084 -0.024042 0.41052 -0.34388 -1.184 0.61516 0.4352 0.96287 
union -0.84427 0.12396 -0.9578 -0.38451 1.2762 -1.1642 -0.82699 0.63975 0.22057 -0.031008 
air 0.5198 0.95652 -0.25607 0.02835 0.42316 -0.57244 -0.90892 0.99954 0.22756 1.3237 
da -0.99248 0.62726 1.1925 -0.1772 0.61704 -0.51342 -0.48803 0.026994 -0.061825 1.1248 
boo -1.0935 0.11024 0.42044 -0.28385 0.73204 -0.22162 -0.65896 -0.44929 0.8474 0.45064 
casino -0.86655 1.8544 0.5829 0.85413 0.18442 -1.0571 -1.7103 -1.0766 0.82523 0.45488 
le -0.73148 -0.063012 0.18524 -0.1622 1.2229 -0.33639 -0.87364 0.39042 -0.19241 0.29897 
detroit -0.918 0.18723 -0.10637 0.083693 0.29005 -1.3666 -0.43315 0.1401 0.84199 0.80994 
stage -0.34265 -0.42885 0.53201 -0.5532 0.48201 -1.3541 -1.1792 0.48438 -0.13944 0.94461 
makeup -1.0224 -1.2241 -0.54968 0.52171 0.12406 0.10554 -0.9613 0.7693 1.53 1.7359 
daughter -0.024804 -0.14764 0.030338 -0.42412 1.1506 -0.068553 -1.0205 -0.78606 1.3191 0.52774 
el -0.1936 1.3377 0.31347 -1.2849 0.39404 -0.18493 -1.3557 -0.47115 -0.076225 1.0453 
ft -0.27858 0.88495 0.8954 -0.55868 0.47475 -0.23518 -0.18099 0.55206 0.9384 1.1869 
kitchen -1.3117 0.086871 -0.20951 -0.35307 1.1938 0.32608 -0.84168 -0.6799 -0.046712 0.92532 
tattoo 0.53302 -0.16936 0.009452 0.038526 0.44221 -0.0088027 -1.1421 0.34211 0.34353 1.9065 
palm -0.28032 1.2211 0.033848 -0.34342 -0.027049 0.17855 -1.3338 0.28818 1.2874 0.83026 
roll -0.53789 0.86868 0.42015 0.33076 1.3309 0.077182 -0.48764 -0.10076 -0.084951 0.92499 
join -0.38735 -0.51258 0.43314 -0.9308 1.1293 -0.090146 -0.94807 0.71857 0.014578 0.98946 
pop -0.42073 -0.058128 0.26017 -0.20919 0.67508 -0.14361 -0.75338 -0.16782 0.19603 1.3188 
pool -0.71485 1.2587 0.30417 0.059119 0.38903 -0.027715 -1.1894 0.45013 0.55288 0.2611 
30 -0.11216 0.11426 0.38807 -0.98016 1.5811 -0.066092 -0.95544 1.321 -0.34257 0.74277 
goal -0.35798 -0.076503 0.42103 0.25912 0.81281 -0.45662 -0.92587 0.88331 0.42646 0.42322 
burger -1.2776 0.7921 0.14726 -0.060356 1.7154 0.18035 -0.77806 -0.7445 -0.6601 1.0442 
nofilter -0.80192 0.6893 -0.83739 0.53688 0.21081 0.08354 -1.584 0.60163 1.049 0.042848 
snapchat -1.1609 -0.13847 0.85677 0.7526 0.047705 -0.26845 -1.0406 0.13432 1.1812 0.91233 
yoga -0.1905 -0.18131 -0.35102 -0.22807 1.2777 0.70382 -1.4572 1.9781 0.10382 0.70495 
inn -0.85916 0.96195 -0.47934 -0.24535 0.54229 -0.17312 -0.81385 -0.50849 1.3389 0.34654 
sunny -1.0104 1.029 -0.08493 -0.086927 0.47223 0.60288 -1.3104 1.0215 0.91934 0.17198 
k -1.0498 -0.013597 0.21246 -0.73151 0.86173 -0.83235 -0.14303 0.17435 0.14493 1.2137 
mind -0.27319 -0.098203 0.43751 0.88483 0.71255 -0.3814 -1.1259 0.94148 0.50569 0.56212 
epcot 0.88172 0.55793 0.38132 -0.39287 0.99116 -0.45522 -3.5693 -0.97674 0.17309 0.82215 
buy 0.10198 -0.29031 0.43827 0.2062 1.1737 0.041298 -0.95412 0.065474 0.019782 1.5084 
hear -0.19877 -0.43039 1.1834 0.32649 0.95556 -0.95443 -0.81733 0.43824 0.32174 1.1035 
chill -0.92082 0.77605 0.71316 0.49764 0.52396 -0.015083 -1.0325 0.19038 0.45309 0.49092 
omg -0.38837 -0.19869 0.56866 0.48621 0.93663 -0.38678 -1.008 -0.61769 0.21568 0.94858 
afternoon -0.62772 0.24129 -0.45496 0.034709 0.87832 0.47173 -1.3172 0.50124 0.49048 0.25131 
oak -0.088279 1.0276 -0.64251 -0.14958 1.3904 -0.44465 -0.47412 -0.02563 0.78027 0.44734 
happiness -0.21806 -0.15332 -0.040616 0.038919 0.70755 0.16417 -1.6801 -0.055249 0.8434 0.20119 
son -0.052722 0.028638 0.49106 -0.39753 1.2684 -0.20424 -0.68666 -0.32986 0.70089 0.64361 
main -0.33124 0.44828 0.067922 -0.39035 1.033 -0.80584 -1.0691 -0.2915 0.36577 0.064003 
madison -1.009 -0.27795 -0.42044 0.15887 1.5779 -1.7545 -1.0541 -0.1479 0.28111 -0.29089 
wisconsin -0.65997 0.65246 -0.27385 0.45008 1.6228 -1.1809 -1.0472 -0.11634 0.94745 -0.82223 
experience 0.049087 -0.23606 0.13458 -0.085322 0.76061 -0.6075 -1.3966 0.29503 0.29872 0.36913 
fit -0.49142 -0.16955 -0.059205 0.83363 1.5462 0.074277 -0.76073 1.5297 -0.089043 0.83805 
kiss -0.11909 0.24292 0.3591 0.33247 0.53553 0.1195 -1.1638 -0.24081 1.1811 0.64876 
spa -0.26639 1.0928 -0.63121 -0.063812 -0.083242 0.75982 -0.9565 -0.15413 1.7418 1.6589 
wall -0.31865 0.26602 -0.49727 0.48684 0.11681 -0.57379 -1.3127 0.66213 0.12427 1.0284 
cut -0.87192 -0.31141 -0.029989 0.74152 0.91609 0.36462 -0.069246 0.69833 0.8958 1.7016 
1st -0.1881 -0.20001 0.23083 -0.9199 1.273 -0.31579 -0.80958 0.57733 0.42742 0.48682 
15 0.033858 0.21542 0.24551 -1.1274 1.4276 -0.33475 -1.0851 1.1273 -0.21169 0.58549 
design -0.31024 -0.77108 -0.97036 -0.0040179 0.11516 -0.11423 -1.2378 0.66379 0.58968 1.7451 
nc -0.58901 1.5724 0.23494 0.16627 0.82302 -0.25671 0.45311 0.22063 1.7688 1.2599 
lmao -0.88161 0.18303 1.4088 0.98599 0.91233 -0.57026 -0.70645 -0.06114 0.40854 0.9509 
finish -0.014062 -0.20981 0.076834 -0.019 1.2511 0.14514 -0.68934 1.0945 0.33346 1.0493 
convention 0.11748 0.92435 -0.37589 -0.57132 -0.11156 -1.7923 -0.5395 0.022923 1.283 1.4512 
minute 0.0094648 0.060501 0.60009 -0.50774 1.4674 0.074489 -1.0163 1.0288 0.078866 0.62591 
actually -0.018722 -0.13726 0.74356 0.55636 1.312 -0.30993 -0.95309 0.30449 0.70225 0.49322 
far 0.25366 0.080855 0.54406 0.027648 1.121 -0.39024 -1.3652 0.37974 0.56544 0.21882 
20 -0.044959 0.058855 0.40009 -0.83269 1.5034 -0.035369 -0.78831 0.96923 -0.16185 0.80705 
momma -0.15367 0.20833 0.25554 -0.5073 1.2758 -0.064017 -0.61336 -0.6536 1.1975 0.52886 
apartment -0.39464 0.76859 -0.59304 0.15833 0.86201 -0.28192 -0.54617 0.16168 0.91606 0.40052 
height -1.4784 0.68647 -0.4913 0.080619 1.2011 -0.50587 -0.40224 0.75749 0.78592 -0.34336 
perform -0.27243 -0.46909 0.17081 -0.825 0.51399 -1.6007 -0.79588 0.18925 0.2186 1.141 
piece -0.24513 -0.59011 -0.072006 0.16488 0.58976 -0.066532 -1.0807 0.033796 0.54244 1.1939 
everyday -0.45092 -0.33369 0.48088 0.26934 1.0879 0.049529 -1.1147 0.40232 0.96163 0.22329 
sing -0.087498 -0.29648 0.824 -0.20936 0.68632 -1.0576 -1.0462 -0.11365 0.49993 0.75905 
shirt -0.1699 -0.13868 0.21191 0.35741 0.89491 -0.36755 -0.268 0.56858 0.41074 1.539 
cleveland -1.2138 0.056869 0.020544 0.3327 0.9416 -1.5334 0.025947 0.002819 0.76929 0.71132 
artist -0.81372 -0.88171 -0.045375 -0.16192 -0.10451 -0.90204 -1.1006 0.72924 0.32998 1.7664 
child 0.62121 -0.14242 0.097375 -0.2254 0.884 -0.51903 -0.7182 -0.045203 1.2632 0.99965 
tower -0.22262 1.1384 -0.77911 0.45026 0.50999 -1.3387 -1.7996 0.69982 -0.2698 0.18718 
sound -0.39909 0.36037 0.91098 0.011976 0.14255 -0.57451 -0.99135 0.98502 0.24741 1.0943 
honor 0.712 -0.51348 -0.13716 -0.77998 1.2641 -0.85582 -0.59421 0.67204 0.98604 0.99988 
theater -0.27705 0.28531 -0.069765 -0.7843 0.44825 -1.8533 -1.0253 -0.3123 -0.063537 0.79035 
paint 0.04273 -0.17199 -0.53201 0.2873 0.4308 0.11507 -1.0122 0.25965 0.67071 1.6246 
sit -0.17175 0.25803 0.68548 0.23408 1.2366 0.0452 -0.89619 0.73596 0.26051 0.49286 
grow 0.09345 -0.27192 0.54009 0.17696 1.2386 0.05745 -0.86215 0.16589 0.82482 0.73585 
louisiana -1.9693 0.19679 0.46242 0.34828 1.1198 -1.0556 -0.56871 -0.32868 0.83823 -0.14094 
workout -0.77971 -0.077976 0.45948 0.61371 1.8254 0.40303 -0.95701 1.8518 -0.15993 0.55138 
liberty -0.81447 0.91275 -0.10133 -0.17154 0.96914 -1.9308 -1.315 0.71891 0.51163 -0.5338 
chocolate -0.33716 0.091134 -0.55773 0.88685 1.5013 0.54145 -1.6111 -0.91422 -0.14879 1.3469 
definitely -0.032542 -0.11425 0.51793 0.19367 0.96789 -0.22971 -1.1084 0.28426 0.55662 0.50163 
tea -0.63229 0.12708 -0.55803 0.38898 1.2173 0.76718 -1.4223 -0.63829 0.03648 1.1253 
columbus -1.0691 0.11445 -0.27916 0.35755 0.67969 -1.2451 -0.40362 -0.22655 1.3354 0.35076 
gold -0.31895 0.031071 -0.40125 0.5642 0.59507 0.099614 -0.55888 0.89009 0.31971 1.6312 
pink -0.35963 -0.18866 -0.61603 0.52738 0.54247 0.18644 -0.61372 0.42927 0.68594 1.6087 
philly -1.4041 0.3184 0.0035273 0.45203 0.479 -1.3452 -0.62382 -0.19023 0.071666 0.74525 
group -0.009276 -0.44601 0.19421 -0.28976 0.93818 -0.66085 -0.74969 0.36599 0.66055 0.69956 
yeah -0.55701 0.29912 0.74331 0.53905 1.1078 -0.30797 -0.63341 -0.034399 0.34272 0.67501 
yet -0.25894 -0.24838 0.75651 0.05146 0.99526 -0.095819 -1.0308 0.54631 0.55731 0.5153 
cat -0.026038 0.13138 0.44145 1.1423 1.1055 -0.55723 -0.55606 -0.88949 1.1198 1.083 
trail 0.28651 1.4146 -0.586 0.76192 1.1873 -0.24902 -0.9641 0.99152 0.91121 0.12017 
hold 0.21417 -0.048332 0.65938 0.44917 1.3179 -0.15022 -0.71989 0.2784 0.79422 0.82068 
yo -1.0553 0.070471 1.4518 0.32881 0.76556 -0.31211 -0.6153 -0.045485 0.30584 1.2421 
mile 0.11981 0.9474 0.25225 -0.31237 1.7222 0.06482 -1.0448 1.5336 0.1133 0.050792 
treat -0.38035 -0.15368 0.1344 0.071301 1.3472 0.61238 -0.92321 -0.44185 0.48046 0.92138 
blast -0.0015828 0.1099 0.45424 -0.48764 0.84382 -0.50518 -0.85655 0.029142 0.78376 0.49384 
cake -0.26969 -0.0073957 -0.20301 -0.034579 1.572 0.76995 -1.2504 -0.84989 0.0079439 1.4473 
present -0.056931 -0.64317 0.19102 -1.0279 0.70525 -0.66201 -0.96253 0.08822 0.398 1.0922 
si -0.62665 0.12103 0.68995 -0.71379 0.90413 -0.28448 -0.69181 -0.39244 1.0378 0.46751 
phone -0.34074 -0.06749 0.905 0.73823 0.88986 -0.37408 -0.98195 0.81715 0.3072 0.85333 
nail -0.099496 -0.23757 -0.46057 0.12901 0.22586 0.52147 -0.71549 0.27115 1.3208 2.3188 
rain -0.18261 0.60454 0.19796 0.66839 0.64015 -0.20451 -1.2439 0.68762 0.40747 0.42067 
cheese -1.3197 0.55023 0.24768 0.35327 1.9961 0.2348 -0.74357 -1.2585 -0.31936 1.2765 
sushi -1.8079 0.41509 0.15708 -0.84735 1.7208 0.79994 -1.012 -0.92809 0.12701 0.71484 
outside -0.18372 0.65014 -0.0086392 0.66969 1.0526 0.11422 -1.1514 0.91441 0.33125 0.34094 
snap -1.2256 -0.35234 0.81224 0.58874 0.38557 -0.27364 -0.89286 0.28458 0.86988 0.8736 
course 0.17518 0.56226 -0.03636 0.18088 1.3041 0.18144 -0.5001 0.33074 0.47759 0.9268 
minnesota -0.73987 0.15021 -0.85561 0.4159 1.6368 -0.55256 -0.32671 0.30535 1.517 -0.23054 
grind -0.1839 0.36071 0.32252 0.42004 1.1305 -0.7024 -0.7672 1.3134 -0.10641 0.53221 
hate -0.32983 0.031754 1.0303 0.95421 1.2562 -0.72326 -0.53852 0.54705 0.69135 0.61433 
denver -0.45578 0.75363 -1.0717 -0.012408 0.76505 -0.3485 -0.69158 0.66036 0.41971 0.70916 
em -0.56578 0.44535 1.0707 0.24768 1.0011 -0.65581 -0.25521 0.25932 0.2814 1.0645 
tag -0.93516 -0.69561 0.80567 0.51302 0.38373 0.076181 -1.646 0.38219 0.4406 0.88743 
joy 0.26048 -0.48428 -0.20441 -0.21056 1.0956 -0.018224 -1.4502 -0.086534 0.76043 0.46269 
double -0.74208 0.23358 0.29423 0.22365 0.90188 0.18057 -0.58225 0.13807 0.41257 0.87355 
absolutely -0.03163 -0.60182 -0.29692 0.24842 0.7213 -0.1813 -1.2167 0.2041 1.0118 0.58365 
die -0.17434 0.30304 0.93391 0.42297 1.02 -0.48834 -0.778 0.16429 0.35837 0.68409 
flower -0.038265 -0.38522 -1.3124 0.19081 1.0542 0.53915 -1.321 0.19852 0.89478 0.90856 
happiest 0.44274 0.17258 0.58503 -0.61702 1.6917 -0.29779 -2.5337 -0.70129 1.0249 -0.21434 
grove -0.63071 1.0646 -0.70869 -0.029733 1.3325 -0.028851 -0.49649 -0.45383 1.3371 0.21617 
front -0.24617 0.48127 0.10446 0.39106 0.78062 -0.414 -1.0381 1.0432 0.20765 0.36714 
hat -0.28542 0.16376 0.36517 0.37785 0.77946 -0.049924 -0.36181 0.39881 0.59961 1.266 
kick -0.30202 0.3095 0.70047 -0.028122 1.3379 -0.16747 -0.43367 0.6483 0.036318 0.93569 
historic -1.2384 0.77629 -0.92134 -0.017578 0.49678 -0.81794 -0.61304 0.25997 1.0616 0.21758 
lincoln -0.3083 0.64206 -0.25968 -0.56432 0.51361 -1.7311 -0.95239 0.87488 1.0106 0.052997 
dude -0.42784 0.26664 1.0711 0.41439 1.0107 -0.52611 -0.67995 0.10883 0.42238 0.66702 
portland -1.4358 0.69756 -0.74376 0.28711 0.73734 0.19729 -0.73207 0.58018 0.81467 0.29727 
send -0.27882 -0.6707 0.60482 0.040662 0.94865 0.068667 -0.97842 0.24571 0.90713 0.89979 
filter -0.8755 0.28689 0.17695 1.0172 0.14694 0.013514 -1.1891 0.27447 1.3711 0.5591 
plaza -0.7438 0.84804 -0.90111 -0.49094 0.48157 -1.2466 -0.9782 -0.39883 0.5538 0.33243 
cream -0.13162 0.68786 -0.50936 0.84343 1.8305 0.48778 -1.2656 -1.0693 -0.075785 1.4839 
trump -0.23511 0.42178 0.20911 1.2046 0.80152 -2.2461 -0.68291 1.0686 0.26641 0.81315 
client -0.47107 -1.1905 -0.1174 0.17111 0.83359 0.56372 -0.73509 1.0169 1.246 1.7258 
oregon -1.0966 0.90597 -0.72959 0.61705 0.85058 0.42439 -0.71373 1.0119 1.6661 0.043164 
learn 0.10905 -0.53801 0.48824 0.46927 1.095 -0.43043 -0.80812 0.86722 0.53416 0.97733 
tampa -0.40926 1.0622 0.34315 -0.87671 0.12014 -0.37632 -1.0943 -0.18555 0.89369 0.72989 
story -0.10399 -0.55843 0.54981 0.32562 0.42061 -0.67144 -1.3222 0.33467 0.58176 0.91435 
spirit 0.22665 -0.13502 -0.28489 0.016066 0.97409 -0.39299 -0.91099 0.079371 0.84064 0.65822 
pub -1.0261 0.61611 -0.44444 -0.32699 1.8262 -0.58621 -0.22796 -1.0061 -0.046008 0.69854 
war 1.5153 0.8931 0.099271 -0.40733 1.2212 -1.1478 -1.4291 0.17297 -0.258 1.5047 
gate -0.99652 1.2351 -0.92292 -0.33037 1.2959 -0.24574 -1.5577 1.5921 -0.02804 0.039073 
past 0.093512 -0.3137 0.60848 -0.46094 1.2097 -0.21899 -1.296 0.67925 0.76669 0.23167 
magical 0.6081 -0.065397 -0.12141 0.064976 0.5758 -0.39483 -2.4685 0.013935 0.75592 0.26652 
throw -0.36681 0.056755 0.74094 0.1048 1.0154 -0.25149 -0.71696 0.33365 0.408 0.68239 
taco -1.0782 0.92164 0.44308 -0.71419 1.4953 0.66437 -0.9276 -0.64486 -0.32817 0.97934 
missouri -0.92423 0.023267 -0.73376 0.27867 1.2826 -1.2002 -0.28387 0.0010959 1.5986 -0.068756 
latergram -0.8774 0.19691 -0.58405 -0.045697 0.44159 -0.14545 -1.5872 -0.1286 0.56193 -0.005046 
nj -1.5639 1.106 -0.49682 -0.3678 1.0357 -0.41928 -0.10498 0.68375 0.54189 0.058757 
record -0.22948 -0.0094172 0.69494 -0.06325 0.34558 -0.94634 -0.97857 0.74562 -0.29197 1.5704 
avenue -1.5428 -0.13964 -0.82717 -0.52837 1.0214 -1.3068 -0.91996 0.47761 0.026511 -0.021237 
reason -0.20865 -0.22009 0.51645 0.20977 1.0533 -0.25681 -1.0161 0.42282 0.72153 0.37533 
pa -1.0734 0.90252 -0.30187 0.20452 1.1687 -1.165 -0.17082 -0.46706 0.49466 0.28805 
venice -0.83032 1.1269 0.64298 -0.30495 -0.085753 0.54628 -2.3006 0.87904 0.66155 0.5107 
mommy -0.19062 -0.0081451 0.17768 -0.45451 1.0319 0.19394 -1.0274 -0.80795 1.2199 0.62321 
available -0.39974 -0.31849 -0.25134 -0.31515 0.66832 0.37201 -0.73866 1.0782 -0.17413 2.5026 
buddy 0.066196 0.38882 0.24534 -0.053341 1.3142 -0.30215 -0.66735 -0.089013 0.87508 0.2962 
key 0.030745 1.1872 0.98516 -0.15615 0.3142 0.44901 -0.84333 0.48376 1.0102 1.3 
ok -0.49714 -0.033871 0.76937 0.55162 0.92961 -0.21235 -0.71463 0.12334 0.66937 0.70937 
might -0.15938 0.06897 0.96377 0.66144 1.2028 -0.26975 -0.7491 0.31437 0.49048 0.84946 
session -0.47128 -0.51257 0.085704 -0.26569 0.48088 -0.099584 -0.95492 1.3244 0.49024 1.0952 
coast -0.77933 1.4671 0.23629 -0.35158 0.56828 0.30168 -1.0073 1.0301 1.0983 0.27298 
space 0.43986 0.37345 -0.33131 -0.24038 -0.11738 -0.64053 -1.5219 0.98835 0.28767 1.3817 
campus -0.50747 0.054397 -0.37203 -0.18065 1.2003 -1.1527 -0.015183 0.72701 1.605 0.22577 
service 0.26557 -0.36748 -0.51396 -0.81393 1.1058 -0.26678 -0.36558 0.59642 0.87226 1.2251 
mood -1.242 0.11107 0.3082 0.38894 -0.043235 -0.16997 -1.0691 0.53429 0.48613 0.8397 
antonio -0.31884 1.1383 -0.58884 -1.55 0.72231 0.035192 -0.87364 0.16798 0.56479 1.021 
natural -0.02896 -0.10568 -1.1298 0.57261 0.49009 0.029083 -0.67559 1.104 1.0246 1.512 
oklahoma -0.47634 0.17582 0.25307 0.2735 1.3618 -0.92715 -0.16478 -0.10258 1.9015 0.14296 
anything 0.046587 -0.012446 0.8492 0.41452 1.2659 -0.35001 -1.0365 0.31773 0.71879 0.36179 
listen -0.44439 -0.075186 1.2455 0.092065 0.47967 -0.81361 -0.81124 0.51062 0.11961 1.4092 
earth 0.61017 0.24347 0.25018 0.015331 1.2452 -0.21612 -2.5192 -0.51117 0.71017 0.04902 
friendship -0.21128 -0.3551 0.22044 -0.4205 1.4833 -0.17077 -1.0467 0.16378 0.941 -0.065162 
hilton -0.97104 1.3143 -0.072132 -0.31877 0.047098 -0.31868 -0.89739 -0.094833 1.818 0.48757 
brew -0.22606 0.86982 -0.81335 -0.053691 1.777 0.093435 -0.7615 -0.154 -0.37203 0.79181 
bank 0.454 1.381 0.58776 0.21655 1.0544 -1.7315 -0.24611 -0.023021 0.41957 1.1171 
puppy -0.21852 0.21214 0.061895 0.66217 1.0735 0.43539 -0.61045 -0.5839 1.8909 0.73269 
hi -0.64686 0.10689 0.40759 -0.05104 0.6624 -0.50428 -0.67019 -0.0059371 0.44236 0.70612 
stand 0.1667 0.16076 0.43691 0.56779 1.1278 -0.63616 -0.78854 0.74689 0.3179 0.58409 
iowa 0.030452 0.54893 0.33507 -0.37532 1.4792 -0.97479 -0.17002 -0.091748 1.707 0.24394 
final 0.23457 -0.061647 0.38403 -0.31586 0.97827 -0.57281 -0.62553 0.85191 0.72945 0.73776 
losangeles -0.9232 0.72572 -0.060112 0.079693 -0.74917 -0.097584 -2.578 0.34644 0.26091 0.84995 
round 0.019847 0.3625 0.24733 -0.44189 1.378 -0.51326 -0.50092 0.39083 0.23962 0.61335 
homecoming -0.45884 0.11218 0.27157 -0.93251 1.593 -1.0413 0.15905 0.38894 1.4859 0.35208 
factory -1.1673 0.46159 0.248 -0.023485 0.93376 -0.14342 -0.83438 -1.3412 0.20936 1.3219 
bestie -0.93528 0.22924 0.38133 -0.48709 1.0792 -0.18901 -0.76524 -0.2374 1.0318 0.0025313 
band -0.0090525 -0.080457 0.42785 -0.41162 0.91585 -1.0037 -0.55169 0.25587 0.25757 1.0048 
monica -0.96509 0.6683 0.5493 -0.75113 0.2005 0.92808 -2.2449 0.5933 1.1779 0.59031 
behind -0.078101 -0.32943 0.4011 0.55868 0.17256 -0.6546 -1.3798 0.93531 0.85494 0.85141 
alpha -0.81099 -0.37527 1.0107 -0.82271 1.2612 -0.99065 0.12379 -0.49922 2.6388 1.7269 
body -0.0091362 -0.072379 0.42413 0.65544 1.0925 0.33426 -0.8655 1.2361 0.073346 1.4888 
stuff -0.27453 0.010318 0.2591 0.46315 1.1125 0.10931 -0.83395 -0.20378 0.039141 1.1441 
animal 0.92203 0.59639 0.23108 0.41262 0.51317 -0.39431 -1.6764 -1.1448 1.4362 1.0781 
princess 0.30392 -0.020273 0.052983 -0.40626 0.73247 -0.19582 -1.2847 -0.78542 1.1042 0.7549 
boyfriend -0.30829 -0.29251 0.30238 -0.048446 1.3466 -0.31987 -1.13 -0.57709 0.9306 0.084265 
area -0.064544 1.0361 -0.64965 0.07198 0.97649 -0.29832 -0.4386 0.9806 0.83962 0.37048 
shout -0.55316 -0.48964 0.92365 -0.47677 0.92249 -0.3753 -0.52375 0.36226 0.58877 1.1627 
heat -0.80173 0.77839 0.78567 -0.16503 0.69094 -0.73749 -0.50385 0.96101 -0.35284 1.1453 
later -0.13106 0.2846 0.84532 -0.58182 1.3461 -0.1562 -0.96985 0.94551 0.48329 0.2122 
quality -0.86898 0.068161 0.43111 0.27302 1.8678 0.075402 -0.067051 0.68526 1.4706 0.31297 
baltimore -1.5394 0.89466 -0.00072486 0.03394 0.31628 -0.39873 -0.11936 0.6729 1.2382 0.77179 
harbor -0.69223 1.6489 -0.30626 -0.36904 0.5573 0.037022 -0.93649 0.51853 1.2868 0.23726 
2015 -0.12353 0.066678 -0.21604 -1.1157 0.59032 -0.68509 -1.0116 0.60207 0.49152 0.52546 
wing -0.7429 0.99494 0.24837 0.30606 2.0991 -0.47091 -0.44971 -0.2885 -0.44403 0.59604 
till -0.41132 0.1332 0.73907 -0.62877 1.2115 -0.31301 -0.95507 1.0051 0.27984 0.30146 
cali -0.86104 0.96532 0.44732 -0.37521 0.057796 0.35823 -1.7911 0.55962 0.65569 0.34042 
literally -0.20396 -0.045163 0.89317 0.3311 1.1489 -0.25563 -1.0465 0.094276 0.50412 0.53427 
cross 0.061321 0.57812 -0.30487 0.33495 1.5934 -0.53553 -0.32771 1.1031 0.25078 0.53095 
middle -0.34053 0.3343 0.25246 0.11705 1.3382 -0.787 -0.24422 0.69093 0.74632 0.20611 
become 0.17726 -0.62395 0.40851 0.060996 1.0863 -0.37412 -0.98766 0.206 0.89501 0.67812 
heaven -0.22537 0.54685 -0.38808 0.22822 1.0593 0.39626 -1.3176 -0.24039 0.070501 0.65443 
fine -0.62502 0.024467 0.016095 0.16958 0.3837 -0.42858 -0.79626 -0.34474 0.74129 1.0013 
short -0.54991 -0.04289 0.1464 0.48068 1.1618 0.13771 -0.5671 0.51633 0.51493 0.77354 
orange -0.26305 1.3506 -0.3064 0.11665 0.4894 -0.12883 -0.5981 0.35229 0.5002 0.94925 
box -0.40031 -0.055214 0.085793 0.04794 1.0309 0.088312 -0.7034 0.44181 -0.31764 1.463 
must -0.29511 -0.19383 0.24676 0.64546 0.98763 0.020523 -1.1175 0.22769 0.22379 0.74643 
sunrise -0.62592 1.0511 -0.33587 0.21307 0.34595 0.14929 -1.4875 1.0738 1.1325 -0.081849 
hospital 0.29491 0.3402 -0.47012 -0.6739 1.2732 -0.63706 -0.030713 0.0052834 1.6289 0.89141 
order -0.28063 -0.31993 0.59019 -0.32547 1.2889 0.86175 -0.59808 0.19833 0.12401 2.0902 
business -0.57289 -0.65735 0.16384 0.0063475 0.81779 -0.39923 -0.54538 0.69926 0.6009 1.0825 
power -0.01023 -0.19985 0.10299 0.11159 0.77564 -0.43903 -0.92935 1.0974 -0.004426 0.99991 
apple -0.41099 0.1756 -0.9003 0.58125 1.4848 -0.073466 -0.94725 -0.12019 -0.29455 0.86357 
student 0.13011 -0.61017 -0.25574 -0.35 1.3372 -1.0339 -0.0075913 1.0163 0.94575 1.0983 
clean -0.44519 0.1577 0.21604 0.58846 1.0676 0.30415 -0.33545 0.4535 0.53047 1.2463 
flag 1.2652 1.3 0.33216 -0.42536 0.97856 -1.1498 -1.5817 0.51517 0.92862 0.44551 
royal 0.24008 0.74838 -0.60656 -0.12691 0.88243 -1.1636 -1.2221 -0.32872 0.18627 0.46362 
official -0.31147 0.060994 0.45857 -0.6026 0.60738 -0.83946 -0.26404 0.78593 0.6552 1.1034 
pre -0.50764 -0.26843 0.048937 -0.71742 0.93754 -0.17558 -0.73146 0.41316 0.06796 0.94448 
empire -1.0227 0.10462 -0.28581 0.90303 0.63297 -1.942 -1.4848 1.1386 -0.21236 0.2465 
wit -1.6341 0.66646 1.4805 0.23669 0.69463 -0.7891 -0.41958 0.1379 0.026482 1.1548 
wow -0.27838 -0.38161 0.15968 0.33068 0.86355 -0.32975 -1.0823 0.16659 0.50828 0.50054 
bc -0.49032 0.16091 0.84472 0.19833 1.4963 -0.13581 -0.51084 0.24126 1.0924 0.23987 
phoenix -0.59733 1.1942 -0.27139 0.6052 0.16189 -0.68551 -0.50866 0.29417 1.1097 1.0192 
haha -0.38145 0.021796 0.89376 0.64434 0.89833 -0.21169 -0.92883 0.0094621 0.42423 0.82181 
southern -1.0304 0.34376 -0.039896 -0.11466 1.1296 -0.22752 0.064425 -0.17453 1.3346 0.60328 
sf -0.78428 0.6079 -0.69329 -0.84129 0.66215 -0.054631 -1.8515 0.89567 -0.26116 0.13587 
buffalo -0.78098 0.7136 0.011423 0.50669 2.2621 -0.73087 -0.73194 -0.12073 -0.32777 -0.062246 
wood 0.13341 0.66242 -0.65892 0.47566 1.0654 -0.25913 -0.3733 0.1827 1.0638 0.67902 
atl -1.5035 0.17131 0.5651 -0.16035 0.1149 -0.72124 -0.35474 0.42763 0.51982 1.1842 
steak -1.8209 0.29248 0.12969 -0.72009 2.0551 -0.11841 -0.23893 -1.2631 -0.27009 1.3216 
plan -0.24235 -0.34323 0.36631 -0.27643 1.0443 0.2153 -1.1489 0.65924 0.49703 0.64415 
dope -1.1051 -0.33454 0.73222 0.11488 0.085214 -0.87639 -0.84444 0.66234 0.40567 1.2619 
matter 0.078558 -0.20621 0.68588 0.66375 1.2633 -0.49435 -0.96331 0.57536 0.80718 0.4172 
louis -0.64296 0.40851 -0.68885 -0.70841 0.96535 -1.3337 -0.32706 -0.33148 0.86083 0.7552 
explore -0.26175 0.64785 -0.77473 0.48246 0.40414 -0.31409 -1.7704 0.72358 1.0059 -0.080426 
success 0.084193 -0.17086 0.1897 -0.37462 0.90259 -0.41479 -0.78202 0.55612 0.87392 0.52117 
niece -0.074642 0.17494 0.097453 -0.55173 1.0974 0.070013 -0.96948 -0.79427 1.5589 0.42059 
rt -0.49444 -0.0034143 1.745 0.6687 1.2809 -0.74525 -0.55923 0.081577 0.027911 1.4385 
mini -0.043481 0.28774 -0.13624 -0.071093 0.96688 0.4828 -0.80683 0.028056 0.70415 0.9594 
nevada -1.1124 0.77197 0.63632 1.0822 -0.14958 -0.5628 -1.9206 -0.43178 1.2045 0.30248 
veteran 1.1436 0.23093 -0.36649 -1.1923 1.7467 -0.85056 -0.53581 0.86467 0.8787 0.98705 
delta -0.93577 0.12585 1.055 -0.99621 0.91934 -1.0245 0.13821 0.13785 2.3929 1.2403 
photographer -0.90744 -0.87987 -0.49955 0.23244 -0.025259 -0.38802 -1.5558 1.1671 1.2028 0.6066 
shoe -0.55281 -0.23041 -0.16123 0.71371 0.82694 -0.26478 -0.22071 0.85175 0.5849 1.4223 
strong 0.14092 -0.24724 0.12969 0.14421 1.3947 -0.47378 -0.66699 0.78781 0.34585 0.60692 
congratulation 0.20957 -0.92242 -0.35618 -1.1192 1.4022 -0.56677 -0.57716 -0.080203 1.2746 0.94175 
il -1.2909 0.75142 -1.1425 -0.82517 1.3249 -0.22801 -0.12734 0.048527 0.38523 0.47248 
quick -0.61806 0.18551 0.51727 0.13009 0.84337 0.1978 -0.828 0.73919 0.3814 0.73214 
academy 0.12329 0.11009 -0.38224 -0.6519 0.77967 -1.1618 -0.063734 0.8243 0.90456 1.0863 
purple -0.15857 -0.26215 -0.57862 0.5727 0.51174 -0.16831 -0.76134 0.15685 0.68033 1.4569 
rest 0.0038634 0.029742 0.55789 0.0041023 1.0859 -0.057865 -1.0268 0.47669 0.58242 0.47529 
read -0.25284 -0.70757 0.32879 0.17052 0.78163 -0.32412 -1.0001 0.48616 0.46951 0.96575 
seriously -0.10382 -0.51767 0.50489 0.47104 1.0577 -0.092607 -1.089 0.21604 0.7438 0.68385 
six 1.043 1.1525 0.72535 -0.59572 1.2379 -0.68874 -1.6312 0.23931 0.66784 0.39963 
wife -0.46306 -0.17937 0.21706 -0.31217 0.94906 -0.19912 -1.0266 -0.29384 0.65423 0.45633 
beverly -0.99159 0.9709 -0.1631 -0.51538 -0.51729 -0.096615 -1.3093 -0.53654 1.2616 1.4532 
forest 0.26453 1.1075 -0.55134 0.41921 0.92484 -0.34561 -0.86303 0.21509 1.1764 0.33477 
hell -1.1337 0.23494 0.94935 0.51393 1.1518 -0.49946 -0.53194 0.19032 0.24505 0.50389 
delicious -1.0285 -0.14533 -0.34543 0.1588 1.7262 0.97307 -1.5887 -0.66887 -0.25307 0.95341 
cred -0.57529 -0.037188 -0.15645 0.061422 0.56087 -0.44845 -0.86235 0.46639 0.63414 0.48646 
card 0.04554 -0.6813 -0.055154 -0.32145 1.1927 -0.20954 -0.5189 -0.027767 0.70309 1.4009 
bride -0.3055 -1.0956 -1.1455 -0.67865 1.0097 0.42416 -1.2106 0.31653 1.6882 0.81528 
step -0.07029 -0.057157 0.40023 0.29273 0.81728 -0.32358 -0.93069 0.91282 0.55991 0.60266 
single -0.69473 -0.30302 1.2888 -0.19734 0.67574 -0.30607 -1.0294 0.69543 0.18764 1.2017 
celebration -0.21067 -0.070112 -0.024244 -1.3249 1.0846 -0.067943 -1.268 -0.3288 0.50832 0.45848 
mad -0.90035 0.037632 1.0346 0.48285 0.85172 -0.34192 -0.71208 -0.033398 0.4614 0.76846 
husband -0.22342 -0.33356 0.11045 -0.4278 1.2647 -0.061396 -1.2274 -0.49197 0.78155 0.27671 
ranch 0.086772 1.1852 -0.5348 -0.075826 1.2047 0.11217 -0.34382 0.075956 0.74508 0.86257 
ga -1.2493 1.3439 -0.051816 0.24704 0.69762 -0.60719 0.46608 -0.31539 1.0426 1.3641 
cutest 0.17631 -0.23005 0.082361 -0.11676 1.2841 0.0046661 -0.72824 -0.68263 1.2666 0.81579 
cover -0.47043 -0.40638 0.24792 -0.0064774 0.38051 -0.32891 -1.0872 0.60299 0.112 1.2469 
stick -0.27096 0.3313 0.65594 0.62941 1.0269 -0.19078 -0.59049 0.14872 0.65153 0.79352 
joe -0.54903 0.57627 0.10399 -0.20955 1.4465 -0.5 -0.068553 -0.69084 0.068009 1.1686 
mill -0.28898 0.94584 -0.7205 0.31229 1.6506 -0.7179 -0.093553 -0.24947 0.34063 0.57651 
teach -0.015298 -0.56028 0.56183 -0.30846 1.304 -0.15088 -0.68841 0.86028 0.47466 0.98654 
nephew 0.029836 0.22936 0.34349 -0.50478 1.2286 0.035317 -0.73609 -0.84489 1.4546 0.63498 
bbq -1.2696 0.90332 0.029101 -0.55611 1.7471 0.29835 -0.27609 -0.60649 -0.32416 1.154 
officially 0.028438 -0.24114 0.33192 -0.62244 1.081 -0.42778 -0.46383 0.45608 0.95043 0.77309 
sale -0.17115 -0.29707 -0.17783 -0.79708 1.095 0.54371 -0.73698 1.113 -0.092277 2.041 
phi -0.84908 -0.29329 1.2004 -0.89738 1.2483 -1.1397 0.059478 -0.52443 2.6988 1.6082 
nightclub -1.8934 0.11477 0.92009 -1.1393 -0.15906 -0.71227 -1.0397 -0.18263 0.25677 1.1058 
centre -0.14233 0.22996 -0.88513 0.089114 0.44729 -2.0589 -1.0718 -0.021468 0.28516 0.71529 
incredible -0.042863 -0.7614 -0.17194 -0.31108 0.97802 -0.64213 -1.3797 0.27482 0.53724 0.41641 
least -0.047303 0.035625 0.71748 0.46992 1.5976 -0.068904 -0.69765 0.45133 0.51667 0.53435 
fish -0.4371 1.3011 0.16068 -0.091942 1.452 0.855 -0.87318 -0.27286 0.34084 0.7448 
bout -0.95692 0.53205 1.6734 0.45759 1.012 -0.40725 -0.3994 0.25485 0.29151 1.0877 
grandma -0.2947 0.014678 0.10153 -0.54437 1.3452 -0.012182 -0.62123 -0.61303 1.1165 0.52369 
kinda -0.53549 0.20358 0.41297 0.68644 0.99722 -0.16025 -0.73052 0.1496 0.66451 0.51568 
obsess -0.42675 -0.44326 -0.3509 0.70679 0.63081 0.16984 -0.66502 0.14006 1.1636 1.2163 
photoshoot -1.0813 -0.75643 -0.44762 0.1309 -0.20317 -0.2681 -1.5329 1.1054 1.0615 0.87424 
hop -0.80291 -0.1098 0.89975 -0.44543 0.75621 -0.70033 -0.79723 0.38207 -0.33392 1.339 
mo -0.9415 0.097441 -0.72315 -0.41939 0.41348 -1.1481 -0.43176 -0.24379 0.41085 1.1267 
money -0.39511 0.084669 1.3061 0.28068 0.68503 -0.45583 -0.76412 0.28078 0.32964 1.3298 
men -0.15538 -0.49684 -0.079462 0.017359 0.92577 -0.51156 -0.6528 0.4886 0.4033 1.0468 
four 0.23821 0.19946 -0.00055617 -0.46818 1.1372 -0.28578 -0.9668 0.22635 0.83551 0.37722 
camera -0.48004 -0.13385 0.42926 0.73973 0.4173 -0.50937 -1.1194 0.73409 0.78839 0.55499 
inspire -0.1354 -1.0281 -0.37016 0.30454 0.3413 -0.33061 -1.3859 0.92059 0.6319 1.1104 
tune -0.75432 -0.3458 0.93654 -0.69903 0.386 -0.43984 -1.0458 1.2595 -0.027519 1.4417 
parent 0.075909 -0.19749 0.41481 -0.50664 1.5572 -0.21331 -0.92855 -0.10261 0.97373 0.22433 
small -0.10574 -0.54856 -0.090897 0.18095 1.2251 0.039614 -0.90919 0.40945 0.36672 0.94565 
straight -0.72937 0.27378 0.8293 0.22038 0.86962 -0.53467 -0.40719 0.56849 0.033347 1.0556 
pittsburgh -0.66935 0.27311 -0.19358 0.45793 0.7169 -1.2235 -0.54709 -0.30628 1.0394 0.36809 
energy 0.63874 -0.45296 0.084078 0.4702 1.1163 -1.5742 -1.0358 0.34157 -0.024998 1.108 
castle 0.43365 0.29985 -0.058501 0.24879 0.69625 -0.68196 -2.1646 -0.74901 0.80268 0.32619 
match -0.10305 -0.12135 -0.022291 0.32224 1.104 0.24766 -0.37611 0.32034 1.0018 1.0952 
tavern -0.84542 0.79222 -0.23821 -0.22364 1.4834 -0.44764 -0.45847 -0.63786 0.2801 0.20472 
mount 0.068947 0.60154 -0.98759 0.46518 1.5613 -0.58045 -0.33494 0.65023 1.7104 0.057169 
credit -0.66275 -0.13441 -0.32048 0.02024 0.47723 -0.41975 -0.88396 0.69473 0.53643 0.56086 
pull -0.71021 0.25521 1.0024 0.219 1.2269 -0.068597 -0.35777 0.69448 -0.10116 1.3221 
fry -1.186 0.86002 0.19363 0.46984 2.2226 0.35117 -0.60645 -0.87748 -0.43296 1.1917 
newport -0.89011 1.3096 0.29234 -0.92532 0.59764 0.091582 -1.0615 0.54473 1.3008 0.017038 
ticket 0.066657 -0.21496 1.0836 -1.1296 1.2433 -0.90255 -0.773 0.7584 -0.30537 1.5774 
truly 0.112 -0.78009 0.21327 -0.053535 0.73141 -0.23509 -1.2667 0.4717 1.0238 0.76361 
jackson -0.86089 0.78514 0.3954 -0.027826 0.56379 -1.0805 -0.12616 0.026251 1.1695 0.67691 
angel 0.11034 0.22048 -0.030454 -0.27405 0.73569 -0.30959 -1.017 -0.16931 0.93655 0.50436 
charleston -1.0048 0.88621 -0.27448 -0.1319 0.60967 0.21041 -0.3977 0.67599 1.6383 0.4469 
homie -0.94735 0.18681 1.2853 -0.43877 0.78952 -0.58941 -0.41565 0.47299 0.34999 1.0245 
cook -1.1998 0.039342 0.41808 -0.10015 1.4038 0.35584 -0.37826 -0.41198 0.13228 1.1354 
able 0.26867 -0.70116 0.59666 -0.31929 1.3896 -0.077498 -1.2916 0.57402 1.1736 0.38838 
shore -0.52989 1.7655 0.38086 -0.53644 0.95101 0.087448 -0.61378 0.51776 1.5626 0.26679 
taste -0.61978 0.16318 -0.24355 0.079007 1.4755 0.69672 -1.205 -0.32644 -0.15988 0.85744 
harry 0.98703 0.61558 0.66838 -0.5038 1.1305 -0.83781 -2.8973 -0.96296 -0.24621 1.3672 
bed -0.62732 0.23613 0.51722 0.63282 1.1303 0.48616 -0.92321 0.11999 0.55267 0.63653 
moon 0.060061 0.47229 -0.18847 -0.23043 0.73766 0.12033 -1.4429 0.03247 0.73543 0.36878 
af -0.91429 0.26373 0.9615 0.72155 0.64291 -0.5617 -0.71317 -0.063282 0.48043 0.78079 
ur -0.57472 -0.32534 1.3076 0.01835 1.1133 -0.12021 -0.53163 0.0022879 0.86307 1.0783 
mary -0.29442 -0.0017397 -0.69965 -0.82504 1.4055 -0.45937 -0.34272 -0.36197 0.83733 0.71596 
suite -1.0237 1.1095 -0.20703 -0.33075 -0.17598 -0.64872 -0.65421 -0.29755 1.3905 0.96164 
shine -0.32975 -0.019752 -0.22489 0.47405 0.48784 -0.026799 -1.2454 0.9111 0.81275 0.50894 
burn -0.1507 0.64301 0.43417 0.50927 1.2515 0.28486 -0.7384 0.94583 -0.088312 0.90827 
add -0.53055 -0.32013 0.25701 0.36519 0.5693 0.37836 -0.80597 0.43188 0.533 1.5678 
cutie -0.48498 0.12148 -0.040724 -0.15318 1.0587 0.16909 -0.80447 -0.66523 1.3092 0.43124 
24 -0.35357 0.46638 0.4202 -0.94882 1.2018 -0.10051 -1.1588 1.2209 -0.35504 0.49107 
ti -0.50841 -0.28679 -0.74038 0.079973 0.59451 -1.0126 -1.0268 -0.82861 0.89046 0.74749 
extra -0.38685 0.013424 0.43038 0.041107 1.4433 0.23947 -0.70543 0.2429 0.73771 0.40429 
relax -0.40091 0.78335 0.15349 0.28258 0.53307 0.90385 -1.5423 0.38122 0.86601 0.52362 
dont -0.53426 -0.060752 1.5261 0.90083 1.0958 -0.55655 -0.88061 0.4339 0.32601 0.9532 
beyond 0.2182 -0.57783 0.2943 -0.37397 0.9207 -0.44216 -1.2553 0.34825 1.338 0.35582 
feature -0.5442 -0.58345 -0.028635 -0.14211 0.35176 -0.2403 -0.8757 0.655 0.278 1.5226 
film -0.14707 -0.32662 0.017437 -0.12143 -0.16015 -0.93369 -1.6766 0.82367 0.29521 1.0043 
save -0.064459 -0.14512 0.67343 -0.24377 1.048 -0.19053 -0.63347 0.51015 0.33761 1.1138 
baptist 0.082781 0.035752 -0.90701 -0.64108 1.551 -1.0219 -0.073354 0.39653 2.0276 0.46663 
serve 0.30108 -0.13041 -0.27058 -0.61759 1.9396 0.23468 -0.44217 0.20682 0.076946 1.2527 
malibu -0.56682 0.81253 -0.13251 -0.41788 0.34834 1.1422 -1.9688 0.58708 1.173 0.48155 
fact -0.62447 0.048776 0.82824 0.62183 0.73573 -0.74237 -0.42932 0.69213 0.69118 0.80496 
table -0.33399 -0.11329 -0.22166 -0.13288 1.148 0.37294 -0.83782 0.17622 0.16191 0.95325 
canada -0.11996 0.28176 -0.68578 0.7962 0.19578 -1.1219 -1.824 -0.098437 0.786 0.33135 
jack -0.27393 0.55093 -0.012007 0.12696 1.2994 -0.49269 -0.57977 -0.50918 0.13288 0.68751 
ave -1.6691 0.65823 -0.2315 -0.70616 0.93725 -0.84719 -0.56213 0.64646 -0.2313 0.17463 
marry -0.082172 -0.49812 0.14777 -0.69722 1.5269 -0.14061 -1.0971 0.064404 0.96085 0.17312 
merica 0.022071 1.122 -0.43424 0.010954 1.2132 -0.89042 -0.48872 0.80689 0.31085 0.17891 
cloud -1.059 0.77353 -0.24059 0.44908 0.48283 -0.082398 -0.96266 1.531 0.59919 0.31537 
rockefeller -0.24467 -0.87688 -1.1971 0.39241 1.2907 -1.956 -2.5815 -0.18217 0.46262 -0.29378 
strip -1.5212 0.42359 0.8023 0.4874 -0.12721 -0.30068 -1.9227 -0.18754 0.32807 0.76241 
bright -0.18403 -0.050807 -0.50095 0.49717 0.40486 -0.25469 -1.334 0.70742 1.2206 0.43508 
fill 0.17117 -0.49814 -0.084275 0.02251 1.196 0.28679 -1.2853 0.10732 0.37196 0.93512 
decide -0.059926 -0.24558 0.55147 0.53543 1.3075 0.058315 -0.77865 0.53077 0.71732 0.73616 
instagram -0.96911 -0.63011 0.35545 1.047 0.0662 -0.1248 -1.7305 0.19255 0.94835 0.72217 
george -0.74215 0.5747 -0.6798 -0.6091 0.87944 -0.86691 0.078541 0.45787 0.96188 0.80629 
track -0.28578 0.37445 0.82831 -0.089546 0.77734 -0.83747 -0.38406 1.1304 0.077075 1.1205 
connecticut -1.5432 0.12715 -0.61579 0.46441 1.1618 -0.62194 -0.10096 0.3636 1.4695 -0.2124 
yummy -1.1961 0.34739 -0.39837 -0.0085371 1.4719 1.1161 -1.5717 -0.92333 -0.087287 1.0647 
4th -0.039659 0.31358 -0.31812 -1.3824 1.3801 -0.2245 -1.0299 0.88492 0.17107 0.34324 
partner -0.17583 -0.18542 0.3569 -0.63441 1.3582 -0.49578 -1.22 0.37832 0.51773 -0.15632 
door -0.2712 0.041024 0.066381 -0.22172 0.73694 -0.18294 -0.72479 0.76579 0.11871 1.2353 
glass -0.088829 0.0095587 -0.68238 0.61365 0.59376 -0.05163 -1.1795 0.19855 0.034273 1.2827 
silver -0.016717 0.72215 -0.68579 0.14093 0.34786 0.17731 -0.54215 0.50937 0.88302 1.4593 
race 0.27128 0.84578 0.41847 -0.082515 1.0637 -0.5739 -0.32143 1.0858 0.22899 0.91855 
ridge 0.090884 1.3103 -0.85202 0.43742 1.7057 -0.18377 -0.29265 0.32655 1.079 0.3955 
vscocam -0.73133 0.25203 -1.1563 0.50889 0.11221 -0.50286 -2.3059 0.26163 0.35916 0.20071 
tan -0.53924 0.92833 0.23237 0.338 0.67183 0.99027 -0.89628 0.92029 0.95238 0.81262 
brown -0.41533 0.061942 -0.48843 0.18982 1.2848 -0.49199 0.086448 -0.31189 0.3653 1.4513 
sexy -1.0429 -0.28801 0.35275 0.37233 0.34554 -0.063088 -0.84497 0.35044 0.4376 1.0194 
port -0.35843 1.7577 0.20144 -0.90632 0.6252 -0.23198 -0.91349 0.30516 0.66232 0.33627 
tb -0.29526 0.63284 0.36705 -0.081558 0.54733 -0.84918 -1.2984 0.47653 0.77093 -0.15969 
skate -0.010339 0.79043 -0.1061 0.9703 1.2806 -1.0206 -0.70822 0.16676 0.21703 0.42062 
cup 0.53795 0.43977 -0.28067 0.41346 1.2695 0.16635 -0.99556 -0.29176 0.069474 1.3598 
trade 0.47701 0.046801 -0.66067 0.15078 1.5061 -1.41 -1.9718 0.83814 -0.68387 0.34973 
leg -0.42119 0.48935 0.69604 0.70646 1.5492 0.3288 -0.61073 1.038 0.00098619 0.84817 
21 -0.63594 -0.0021488 0.66082 -1.2602 1.432 -0.27013 -0.9206 0.44854 -0.0074522 0.30788 
arkansas -0.27441 0.28905 0.085063 0.33947 1.1517 -0.4796 -0.067425 0.19665 2.0224 0.40352 
steakhouse -1.7278 0.84474 0.027386 -1.5223 1.7902 0.19104 -0.20114 -0.91888 0.4791 0.71344 
crush -0.64769 -0.63416 0.53335 -0.027346 1.1403 -0.29479 -0.73933 -0.060642 0.75456 0.62997 
wonder 0.021963 -0.2811 0.4196 0.56668 0.73951 -0.74592 -1.2754 0.098788 0.26385 0.77584 
row -0.1307 0.4548 0.32984 -0.19094 1.2586 -0.74746 -0.80486 0.5926 -0.17996 0.30167 
maybe 0.012916 -0.14121 0.84639 0.57891 1.0933 -0.18102 -1.1402 0.18522 0.43371 0.78624 
bean -1.1392 0.27133 -0.91692 0.7815 1.9421 0.22133 -0.86574 -0.15156 0.25438 0.14713 
project -0.29148 -0.44184 0.14403 -0.27091 0.24361 -0.34983 -0.79276 1.0156 0.5202 1.4589 
oakland -0.22356 0.98134 -0.058264 -0.44102 0.56152 -0.75553 -0.50686 0.43829 0.10601 0.98341 
mississippi -0.66759 0.76177 0.38837 0.56563 1.3937 -0.69614 0.087996 0.030364 1.4955 0.22959 
everybody -0.83995 -0.13539 1.1165 -0.0078135 0.81331 -0.46154 -0.78716 0.1867 0.43369 0.72889 
steal -0.063144 -0.034286 0.44001 0.23426 0.87329 -0.42489 -0.81775 -0.345 0.95645 0.67175 
broadway -1.2298 -0.40854 -0.24445 -0.17616 0.70282 -1.4425 -1.6232 -0.49467 -0.25789 0.15211 
inside -0.082443 -0.12373 0.057117 0.27125 0.72069 -0.26591 -1.226 0.35595 0.12181 0.73814 
uncle -0.17371 0.28693 0.28271 -0.55353 1.3512 -0.22634 -0.27523 -0.82306 0.96748 0.91893 
peace 0.14726 -0.061604 0.035693 0.013274 0.40417 -0.34262 -1.3848 0.45332 0.93556 0.44762 
bestfriend -0.66762 0.10206 0.48829 -0.31644 1.3 -0.36063 -1.0857 -0.43731 1.2068 -0.36112 
count -0.13572 -0.072714 0.49933 -0.38187 1.3935 -0.26594 -0.7523 0.85086 0.58475 0.26154 
stone -0.13254 0.78235 -0.5771 0.53659 1.5125 -0.060563 -0.36819 0.34023 0.36491 0.75238 
fabulous -0.69049 -0.84823 -0.2275 -0.24793 0.4731 0.095308 -1.3157 0.23076 0.88368 0.8815 
inc -0.52418 0.27354 -0.67311 -0.035259 0.70949 -0.47485 -0.16971 0.12392 0.43031 1.2037 
mexican -1.0786 1.0719 0.67757 -0.90956 1.215 0.71644 -0.95543 -1.0688 0.13102 1.1837 
library -0.96017 -0.26904 -1.2434 0.040174 1.1518 -1.2045 -0.028518 0.7852 0.79204 0.64929 
shoutout -0.70591 -0.57165 0.90877 -0.31645 0.87075 -0.41392 -0.6674 0.30584 0.69956 0.86568 
memphis -1.3553 -0.3162 0.14536 0.32888 0.86395 -1.3885 -0.29303 -0.3716 0.69915 0.70198 
girlfriend -0.77369 -0.41563 0.41694 0.05339 1.1639 -0.28225 -0.83783 -0.11732 1.0702 0.11923 
jump 0.04493 0.58207 0.51583 0.56156 1.0767 -0.1807 -0.89756 0.87522 0.44531 0.49246 
complete 0.24841 -0.19391 0.012303 -0.032221 0.97575 -0.16236 -1.01 0.62991 0.42321 0.77424 
chi -1.4626 -0.167 0.49662 -0.49025 0.96968 -0.53067 0.039213 -0.15006 2.0972 0.81344 
human 0.025597 -0.48906 -0.064076 -0.011256 1.0087 -0.29845 -1.0399 -0.066973 1.0505 0.42185 
selfies -0.81658 -0.2756 0.23017 0.63885 0.68896 -0.21309 -0.81653 0.47013 1.0215 0.38137 
vegan -1.1396 -0.11658 -0.49652 0.77127 1.6866 0.89818 -1.4492 -0.54826 -0.47565 1.4183 
wrap -0.45795 -0.373 -0.072151 0.063601 1.1492 0.39328 -0.87092 0.13815 -0.10378 1.3338 
number -0.090245 -0.23213 0.55425 -0.4635 1.4176 -0.54505 -0.68672 0.61986 0.27742 0.61634 
rooftop -2.0338 0.17658 -0.43338 -0.37609 0.50587 -0.41287 -1.5107 0.55697 -0.25152 0.14393 
different -0.16173 -0.29103 0.36093 0.82374 0.83592 0.069129 -1.0912 0.88448 0.75524 0.89398 
foot 0.19083 0.50778 0.46416 0.3689 1.1848 0.017627 -0.73275 0.94482 0.44155 0.67649 
palace -0.84324 0.48262 -0.080533 -0.041775 0.0052914 -1.2538 -1.22 -1.0817 0.53529 1.0075 
pumpkin 0.20474 0.1695 -0.78328 1.0899 2.0236 -0.034774 -0.90088 -1.3222 0.80184 1.1199 
luck 0.10295 0.0093751 0.69409 -0.37023 1.4538 -0.64864 -0.56831 0.3956 0.8014 0.36671 
create 0.029576 -0.79985 -0.079131 0.32994 0.37134 -0.13196 -1.4077 0.72364 0.79867 1.2123 
cuz -0.79367 0.045267 1.1859 0.35782 0.95162 -0.37974 -0.70245 0.051803 0.68812 0.64437 
pay -0.071489 0.0055542 1.1297 0.29097 1.2483 -0.49169 -0.54743 0.67025 0.083103 1.2353 
local -0.79506 -0.21769 -0.47884 -0.14139 1.053 0.14599 -0.6465 0.20992 -0.18428 1.2716 
december -0.40201 -0.01048 -0.088572 -1.1512 0.58064 -0.090896 -1.4278 0.8354 0.61343 0.33551 
classic -0.37705 0.11221 -0.041209 0.17412 0.43962 -0.30159 -0.6915 0.41958 0.075301 1.3043 
az -0.60187 1.4138 -0.62826 0.88477 0.55351 -0.27352 -0.4428 0.25885 1.0264 0.87112 
host -0.48058 -0.56876 0.054674 -0.98139 0.6794 -0.64126 -0.9455 0.35509 0.097032 1.1305 
blog -1.216 -0.96679 -0.27586 -0.1242 0.094351 0.34777 -1.6771 1.3034 0.78199 1.2963 
dear -0.24956 -0.51666 0.039739 -0.33955 1.0027 0.030837 -1.2561 -0.20251 0.78997 0.43012 
con 0.019585 0.88037 0.050945 -0.98844 0.019507 -0.80284 -1.5908 -0.66412 -0.37612 1.4341 
utah 0.27125 0.8534 -0.63748 0.96849 0.79897 -0.62072 -1.0047 0.4573 1.3741 0.16711 
swear -0.19657 0.089233 1.0996 0.62689 0.95526 -0.43978 -0.87316 0.071711 0.68712 0.67702 
sugar -0.27484 0.67015 -0.21964 0.36529 1.2023 0.22299 -0.7554 -0.88025 0.2669 1.2599 
easy -0.49894 0.13247 0.39752 0.45444 1.0788 0.14708 -0.63354 0.77839 0.46872 0.67929 
paradise -0.28888 1.3611 0.37415 -0.078942 0.43446 0.50561 -1.5853 0.13574 0.95697 0.37888 
elementary -0.25194 0.25108 -0.71728 -0.37593 1.7746 -0.88954 0.26522 0.55513 0.92947 0.44208 
prince 0.025572 -0.11041 -0.27463 -0.26892 0.47075 -1.1566 -1.1409 -0.60722 0.381 1.1527 
low -0.9617 0.45029 0.71966 0.50493 1.4782 0.40243 0.10029 0.9876 0.77356 1.0341 
va -0.8794 1.1777 -0.29739 -0.3974 0.75249 -0.59066 0.052793 0.19847 1.069 0.53879 
vintage -0.50054 -0.24977 -1.0306 -0.019458 0.39907 0.36812 -0.93852 0.68534 0.27617 1.777 
myrtle -0.70494 1.8321 1.2415 -0.27636 0.86875 0.39464 -0.78803 0.33879 1.8637 0.46342 
tire -0.51502 0.37534 0.75452 0.57658 1.0623 -0.16096 -0.92547 0.57635 0.40549 0.29609 
fight 0.19318 0.22188 0.87331 0.394 1.6342 -0.67592 -0.43618 0.63646 0.19061 0.81071 
idea -0.30472 -0.61299 0.32731 0.35456 0.99229 0.16201 -1.293 0.20292 0.30579 0.84791 
coach 0.19444 -0.12914 0.28232 -0.030613 1.3442 -0.52395 -0.16524 0.76188 0.62936 0.99429 
eagle 0.28208 1.1642 0.054021 0.12851 1.3196 -0.941 -0.21691 0.19778 0.60773 0.73896 
album -0.63259 -0.388 1.0678 -0.17051 0.14028 -1.1229 -1.0408 0.62238 0.11078 1.6068 
sc -0.88913 1.391 0.673 -0.20271 0.6746 -0.017216 0.045578 0.5801 1.6044 0.77688 
gang -0.85878 0.64126 0.94761 -0.08435 0.41093 -0.94998 -0.19802 -0.046414 0.45068 1.2067 
greatest 0.3497 -0.51231 0.39457 -0.44602 1.3191 -0.80882 -1.2517 -0.12069 1.086 0.24294 
chick -0.70968 0.55664 0.70963 0.058323 1.6767 -0.14066 0.013431 -0.42356 0.60216 0.89937 
dr 0.3729 0.28839 0.21173 -0.56675 0.53516 -0.47509 -0.3464 -0.30574 0.71322 1.6869 
outfit -0.89053 -0.61118 -0.30636 0.3131 0.34541 0.13208 -0.81172 0.75974 0.9258 1.2892 
yum -1.3158 0.51718 -0.40368 0.24387 1.4871 0.52529 -1.1481 -1.2478 -0.21495 1.0759 
sanfrancisco -0.67528 0.79556 -1.1962 -0.58614 0.6187 0.23994 -2.4406 1.0405 0.064298 -0.0043715 
public -0.93047 -0.23798 -1.0966 0.13559 1.2229 -1.1788 -0.35875 0.28995 0.31405 0.54624 
easter -0.38709 -0.026922 -0.53105 -0.47816 1.4535 0.14859 -0.67453 -0.14855 1.0605 0.22132 
fest 0.023437 0.53534 0.10268 -0.62686 1.0102 -0.98632 -0.90996 -0.21751 -0.27633 0.66216 
monument 0.096666 1.0783 -0.85514 0.099755 0.52661 -2.0299 -1.5658 1.8741 1.4879 0.29885 
ho -1.7314 -0.38791 -0.35306 -0.093268 0.4032 -1.2428 -1.265 -0.2661 0.45272 0.33124 
jesus 0.36776 -0.4331 0.14633 -0.41353 1.2711 -0.55556 -0.67224 0.029049 1.1715 0.74538 
bag -0.4112 -0.34268 0.023695 0.59502 0.79513 0.31327 -0.82045 0.4246 0.14126 1.7294 
blonde -1.0862 -0.45887 -0.69593 0.4403 0.83538 0.73753 -0.35007 0.62657 1.4675 1.2901 
collection -0.19923 -0.52668 -0.74598 -0.05277 0.22725 -0.1982 -1.0556 0.7889 0.31659 1.7724 
list 0.0529 -0.28304 0.38061 -0.44768 0.57259 -0.12069 -1.0013 0.70357 0.32265 1.3945 
okay -0.274 -0.12117 0.98543 0.48217 1.2303 -0.39881 -0.73989 -0.0015404 0.79234 0.57186 
vsco -0.6049 0.3093 -1.1363 0.5414 0.075437 -0.48458 -2.525 0.38808 0.4309 0.18641 
fave -0.5414 -0.080732 0.015126 -0.3233 0.95296 -0.21438 -0.75574 -0.249 0.70293 0.53386 
tap -0.99966 -0.14944 -0.2433 0.0079329 0.81717 0.17556 -0.66175 0.16731 0.04574 1.2511 
foodporn -2.1813 0.56582 -0.29288 0.26754 1.4694 0.80355 -2.0682 -1.103 -0.65311 0.96047 
nation 0.33345 0.65783 0.17708 -0.09704 1.205 -1.5483 -0.052645 0.73226 0.25288 1.1053 
christian 0.20418 -0.08252 -0.38227 -0.74696 1.3125 -0.86371 -0.043614 0.37084 1.5378 0.80131 
capitol -0.79485 0.56641 -0.74564 0.05961 0.41592 -1.7818 -0.76947 1.4394 1.206 0.32384 
self -0.56632 -0.6545 0.50555 0.63146 0.63122 -0.11869 -1.0523 0.5485 0.60516 0.96033 
brand -0.43989 -0.72077 -0.1521 0.46829 0.32224 -0.54127 -0.96553 0.75655 0.025862 1.8445 
bos -0.66877 0.14077 0.81001 -0.12888 0.438 -0.35459 -0.7202 0.056635 0.44445 1.1176 
2nd 0.02333 -0.14069 0.17531 -1.0548 1.2809 -0.35025 -0.85423 0.67482 0.35366 0.54371 
18 -0.034225 0.3021 0.31052 -1.0927 1.7328 -0.49558 -0.6385 0.81192 -0.11737 0.48318 
yall -1.0012 0.071314 1.7713 0.24164 1.03 -0.69029 -0.55842 0.35438 0.61816 0.82072 
detail -0.68481 -0.65798 -0.61244 0.024699 0.17703 0.31975 -1.0399 1.1145 0.74176 1.6206 
president -0.063057 -0.15747 -0.24652 0.17116 0.93763 -2.1191 -0.18075 0.75734 0.62399 1.069 
truth -0.77924 -0.42244 0.51564 0.75975 0.60321 -0.56802 -0.68474 0.62702 0.61899 0.87024 
xmas -0.37916 -0.27103 -0.31376 -0.63039 0.30013 -0.29916 -1.4642 -0.54832 1.0143 0.72604 
foodie -1.873 0.26783 -0.47926 0.20121 1.117 0.90064 -2.0762 -0.91827 -0.40499 0.91617 
arrive -0.12876 0.02398 -0.45926 -0.4712 0.37127 0.052202 -0.9812 0.51902 0.40884 1.1866 
dead -0.34799 0.15225 1.147 0.5981 0.92754 -0.80889 -0.97589 0.21114 -0.040437 0.83756 
capture -0.17557 -0.51307 -0.22948 0.23957 0.49857 -0.042498 -1.6863 0.90046 1.2293 0.21415 
ootd -1.7002 -0.4269 -1.0279 0.41549 -0.32304 0.15672 -1.6067 0.81741 0.68074 1.3231 
pie -0.5075 0.31327 -0.24637 0.25785 1.73 0.71207 -0.81911 -0.94937 0.3921 1.113 
paul -0.50257 -0.14709 -0.93308 -0.82907 0.94365 -0.95854 0.065995 0.21943 1.1034 1.1898 
marriott -0.9244 1.122 -0.22609 -0.97682 -0.26124 -0.67925 -1.0552 0.12819 1.7081 0.56019 
sigma -0.85423 -0.45142 1.1288 -0.61595 1.4789 -0.94069 0.137 -0.33581 2.5927 1.402 
25 -0.023552 -0.034443 0.13738 -1.0077 1.203 0.029407 -0.97435 1.2291 -0.11826 0.96423 
annual 0.23211 -0.2959 -0.37084 -1.2308 1.1041 -0.49396 -1.0357 -0.014794 0.62965 0.69723 
safe -0.11377 0.252 0.61949 -0.16761 0.91895 -0.23809 -0.9324 0.57301 0.78189 0.36715 
performance 0.036202 -0.49314 0.2614 -0.70757 0.64277 -1.2642 -0.89359 0.60765 0.17822 1.0356 
gal -0.45315 0.073095 0.285 -0.46161 1.3318 -0.41387 -0.71441 -0.57705 1.167 0.1285 
mix -0.72428 0.035787 0.55377 -0.098345 0.63782 0.11748 -0.63188 0.33075 -0.34492 1.9756 
choose 0.25954 -0.4991 0.27155 0.37468 1.092 -0.1263 -0.95157 0.46662 0.79504 0.86121 
adorable 0.089703 -0.3178 -0.19502 0.25825 0.95395 0.40392 -0.994 -0.57347 1.4628 0.94209 
via -0.95857 -0.18898 0.51721 -0.084367 0.047591 0.14055 -0.97432 0.57295 0.23793 1.6836 
mission -0.071454 0.71093 -0.41882 -0.71676 0.52156 0.10149 -1.09 0.54392 0.84191 0.56178 
gallery -0.3378 -0.33442 -1.2032 -0.23954 0.29142 -0.59733 -1.181 0.75557 0.066192 1.2301 
ring -0.085785 -0.48849 -0.57413 0.19938 1.2693 -0.024646 -0.54993 0.35836 0.50007 1.106 
donut -0.43718 0.77552 -0.16157 0.89914 1.566 0.4286 -0.91963 -0.48181 -0.19202 1.1191 
ily -0.4881 0.11748 0.82629 -0.4904 1.4605 -0.6252 -0.36138 -0.6546 1.3636 0.33234 
deep -0.19413 0.76693 0.27073 0.32556 0.83072 0.48704 -0.50943 0.59997 0.34108 1.4124 
pose -0.51473 -0.2505 0.39666 0.43596 0.58279 -0.13757 -1.0277 0.43661 0.78405 0.50264 
deal -0.18689 -0.13709 0.81276 -0.14648 0.99883 0.066409 -0.64467 0.57408 0.26293 1.251 
radio -0.72855 -0.13479 0.87821 -0.51012 0.30959 -1.4562 -1.2364 0.46227 -0.45994 1.1596 
100 0.07356 0.11184 0.36806 -0.10494 1.2552 0.048194 -0.652 1.1901 0.085523 1.0786 
degree -0.53158 1.0606 0.3312 -0.4291 1.2468 0.65923 -0.85779 1.9219 0.42381 0.45211 
potter 1.25 0.71178 0.40483 -0.41253 1.1034 -0.99266 -3.3411 -0.8516 -0.12113 1.6185 
